{"learner":{"attributes":{},"feature_names":[],"feature_types":[],"gradient_booster":{"model":{"gbtree_model_param":{"num_parallel_tree":"1","num_trees":"100"},"iteration_indptr":[0,1,2,3,4,5,6,7,8,9,10,11,12,13,14,15,16,17,18,19,20,21,22,23,24,25,26,27,28,29,30,31,32,33,34,35,36,37,38,39,40,41,42,43,44,45,46,47,48,49,50,51,52,53,54,55,56,57,58,59,60,61,62,63,64,65,66,67,68,69,70,71,72,73,74,75,76,77,78,79,80,81,82,83,84,85,86,87,88,89,90,91,92,93,94,95,96,97,98,99,100],"tree_info":[0,0,0,0,0,0,0,0,0,0,0,0,0,0,0,0,0,0,0,0,0,0,0,0,0,0,0,0,0,0,0,0,0,0,0,0,0,0,0,0,0,0,0,0,0,0,0,0,0,0,0,0,0,0,0,0,0,0,0,0,0,0,0,0,0,0,0,0,0,0,0,0,0,0,0,0,0,0,0,0,0,0,0,0,0,0,0,0,0,0,0,0,0,0,0,0,0,0,0,0],"trees":[{"base_weights":[-1.1965156E-4,6.3121307E-1,-9.5956933E-1,-1.2321291E0,6.1870974E-1,-8.3197296E-1,-1.4080462E0,-1.248098E0,-5.1669043E-1,-1.6962069E0,-1.2406635E0,-1.4724753E0,-7.8142977E-1,6.463056E-1,-6.522077E-1,-5.288476E-1,-1.3027023E0,-1.3094072E0,-5.791761E-1,-5.0713307E-1,-3.4308696E-1,-2.8161228E-1,1.22801796E-1,3.1168625E-1,2.6363885E-2,-2.4535602E-1,9.9984165E-3,-1.7561303E-1,-4.1719404E-1,-3.3458614E-1,-4.5104593E-1,2.9668555E-2,-2.9486343E-1],"categories":[],"categories_nodes":[],"categories_segments":[],"categories_sizes":[],"default_left":[0,0,0,0,0,0,0,0,0,0,0,0,0,0,0,0,0,0,0,0,0,0,0,0,0,0,0,0,0,0,0,0,0],"id":0,"left_children":[1,-1,3,5,-1,7,9,11,13,15,17,19,21,23,25,-1,27,29,31,-1,-1,-1,-1,-1,-1,-1,-1,-1,-1,-1,-1,-1,-1],"loss_changes":[1.3060781E3,0E0,3.685232E2,2.756372E1,0E0,1.603003E1,1.150238E1,4.5121613E0,1.2087107E1,3.4942627E-1,7.5255737E0,6.0352325E-1,4.071909E0,1.7125862E0,7.6117096E0,0E0,3.495102E-1,4.510498E0,5.2825894E0,0E0,0E0,0E0,0E0,0E0,0E0,0E0,0E0,0E0,0E0,0E0,0E0,0E0,0E0],"parents":[2147483647,0,0,2,2,3,3,5,5,6,6,7,7,8,8,9,9,10,10,11,11,12,12,13,13,14,14,16,16,17,17,18,18],"right_children":[2,-1,4,6,-1,8,10,12,14,16,18,20,22,24,26,-1,28,30,32,-1,-1,-1,-1,-1,-1,-1,-1,-1,-1,-1,-1,-1,-1],"split_conditions":[-1.0902676E-1,6.3121307E-1,2.3992856E0,2.9816633E-1,6.1870974E-1,-7.8341615E-1,4.9721807E-1,6.8474764E-1,4.302966E-1,-7.8341615E-1,1.1079249E0,3.1850523E-1,6.703096E-1,8.9633626E-1,8.767553E-1,-5.288476E-1,3.2412648E-1,7.915857E-1,5.082318E-1,-5.0713307E-1,-3.4308696E-1,-2.8161228E-1,1.22801796E-1,3.1168625E-1,2.6363885E-2,-2.4535602E-1,9.9984165E-3,-1.7561303E-1,-4.1719404E-1,-3.3458614E-1,-4.5104593E-1,2.9668555E-2,-2.9486343E-1],"split_indices":[8,0,0,15,0,3,1,2,5,3,2,11,1,2,10,0,1,15,5,0,0,0,0,0,0,0,0,0,0,0,0,0,0],"split_type":[0,0,0,0,0,0,0,0,0,0,0,0,0,0,0,0,0,0,0,0,0,0,0,0,0,0,0,0,0,0,0,0,0],"sum_hessian":[6.4494525E2,2.016077E2,4.4333755E2,4.072027E2,3.6134876E1,1.2609826E2,2.8110443E2,5.308089E1,7.301737E1,9.9931625E1,1.811728E2,3.4390434E1,1.8690454E1,7.2269754E0,6.57904E1,8.2487206E1,1.7444424E1,1.6322997E2,1.7942835E1,1.8192041E1,1.6198393E1,1.6696806E1,1.9936484E0,3.7380908E0,3.4888847E0,5.2831684E1,1.29587145E1,2.7412665E0,1.4703157E1,8.497926E1,7.82507E1,6.9777694E0,1.0965066E1],"tree_param":{"num_deleted":"0","num_feature":"16","num_nodes":"33","size_leaf_vector":"1"}},{"base_weights":[-6.0113976E-3,1.5840946E0,-7.277821E-1,4.7645485E-1,1.5029657E-1,-9.3216157E-1,4.670701E-1,-1.1382562E0,-6.9454944E-1,-1.336211E0,-9.7195584E-1,-4.362892E-1,-1.0143864E0,-1.3538343E0,-3.9699275E-2,-1.462017E0,-8.5699326E-1,-7.5856787E-1,-2.7057812E-1,-1.0497717E0,6.1388135E-2,-4.0852895E-1,-1.217698E-1,-4.6497232E-1,-8.445492E-3,-2.0039555E-1,-3.6845815E-1,-2.8862202E-1,4.6505023E-2,1.05655864E-1,-1.5179439E-1,-3.2367358E-1,9.6167095E-2],"categories":[],"categories_nodes":[],"categories_segments":[],"categories_sizes":[],"default_left":[0,0,0,0,0,0,0,0,0,0,0,0,0,0,0,0,0,0,0,0,0,0,0,0,0,0,0,0,0,0,0,0,0],"id":1,"left_children":[1,3,5,-1,-1,7,-1,9,11,13,15,17,19,21,-1,23,25,27,29,31,-1,-1,-1,-1,-1,-1,-1,-1,-1,-1,-1,-1,-1],"loss_changes":[6.994263E2,4.6783447E-2,1.9717125E2,0E0,0E0,1.808078E1,0E0,5.443329E0,1.4554451E1,1.7480164E0,5.2241974E0,5.25296E0,3.6809464E0,1.1930847E-1,0E0,2.5309029E0,5.8825912E0,6.4986267E0,1.0301277E1,3.4705734E0,0E0,0E0,0E0,0E0,0E0,0E0,0E0,0E0,0E0,0E0,0E0,0E0,0E0],"parents":[2147483647,0,0,1,1,2,2,5,5,7,7,8,8,9,9,10,10,11,11,12,12,13,13,15,15,16,16,17,17,18,18,19,19],"right_children":[2,4,6,-1,-1,8,-1,10,12,14,16,18,20,22,-1,24,26,28,30,32,-1,-1,-1,-1,-1,-1,-1,-1,-1,-1,-1,-1,-1],"split_conditions":[-7.6458305E-1,-1.2797882E-1,2.3992856E0,4.7645485E-1,1.5029657E-1,6.4948285E-1,4.670701E-1,4.8216662E-1,6.01809E-1,1.3626857E0,2.9683515E-1,-7.8341615E-1,1.5149629E0,4.2915115E0,-3.9699275E-2,1.4621012E0,8.29541E-1,5.80001E-1,5.471995E-1,1.3626857E0,6.1388135E-2,-4.0852895E-1,-1.217698E-1,-4.6497232E-1,-8.445492E-3,-2.0039555E-1,-3.6845815E-1,-2.8862202E-1,4.6505023E-2,1.05655864E-1,-1.5179439E-1,-3.2367358E-1,9.6167095E-2],"split_indices":[15,13,0,0,0,2,0,1,15,8,2,3,9,6,0,12,15,1,5,8,0,0,0,0,0,0,0,0,0,0,0,0,0],"split_type":[0,0,0,0,0,0,0,0,0,0,0,0,0,0,0,0,0,0,0,0,0,0,0,0,0,0,0,0,0,0,0,0,0],"sum_hessian":[6.074153E2,1.8926279E2,4.1815253E2,1.8808655E2,1.1762402E0,3.8436096E2,3.379155E1,2.0380165E2,1.8055931E2,8.983371E1,1.1396795E2,1.0120387E2,7.935544E1,8.8414856E1,1.4188492E0,1.9428976E1,9.453897E1,3.3151817E1,6.8052055E1,7.725183E1,2.103612E0,8.7248535E1,1.1663263E0,1.8230577E1,1.1983973E0,6.4497574E1,3.0041393E1,2.7068989E1,6.0828266E0,1.8531214E1,4.9520844E1,7.58515E1,1.4003309E0],"tree_param":{"num_deleted":"0","num_feature":"16","num_nodes":"33","size_leaf_vector":"1"}},{"base_weights":[-2.4148144E-3,1.3580796E0,-5.757901E-1,1.2219364E-1,4.0860143E-1,-7.346558E-1,3.9945412E-1,-4.837096E-1,-9.005642E-1,-1.081482E0,-3.634821E-1,-1.1466991E0,-7.555037E-1,-1.2140429E0,1.0516073E-1,-6.719045E-1,-1.8602467E-1,-1.1827279E0,-3.657574E-1,4.9283656E-1,-7.9425967E-1,-6.4421296E-2,-3.7625661E-1,1.552183E-1,-1.0891981E-1,-5.8931924E-2,-2.4627422E-1,-8.611167E-2,1.6164318E-1,-3.7347934E-1,-2.4485973E-1,-2.4925664E-1,1.9674553E-1,-2.522034E-1,4.0385273E-1,-2.483404E-1,3.1612394E-3],"categories":[],"categories_nodes":[],"categories_segments":[],"categories_sizes":[],"default_left":[0,0,0,0,0,0,0,0,0,0,0,0,0,0,0,0,0,0,0,0,0,0,0,0,0,0,0,0,0,0,0,0,0,0,0,0,0],"id":2,"left_children":[1,3,5,-1,-1,7,-1,9,11,13,15,17,19,21,23,25,27,29,31,33,35,-1,-1,-1,-1,-1,-1,-1,-1,-1,-1,-1,-1,-1,-1,-1,-1],"loss_changes":[4.2266806E2,4.473877E-2,1.16477615E2,0E0,0E0,1.4241058E1,0E0,9.845451E0,6.669235E0,3.8004704E0,6.449025E0,1.715065E0,6.9578323E0,5.7645035E-1,8.183419E-1,2.9196644E0,5.838419E0,6.3720703E-1,2.832133E0,6.484443E0,3.5724792E0,0E0,0E0,0E0,0E0,0E0,0E0,0E0,0E0,0E0,0E0,0E0,0E0,0E0,0E0,0E0,0E0],"parents":[2147483647,0,0,1,1,2,2,5,5,7,7,8,8,9,9,10,10,11,11,12,12,13,13,14,14,15,15,16,16,17,17,18,18,19,19,20,20],"right_children":[2,4,6,-1,-1,8,-1,10,12,14,16,18,20,22,24,26,28,30,32,34,36,-1,-1,-1,-1,-1,-1,-1,-1,-1,-1,-1,-1,-1,-1,-1,-1],"split_conditions":[-7.6458305E-1,-7.8341615E-1,2.3992856E0,1.2219364E-1,4.0860143E-1,4.1203234E-1,3.9945412E-1,3.3209994E-1,5.122695E-1,1.3209198E0,-7.8341615E-1,1.1079249E0,1.7173931E-1,3.716381E-2,7.33299E-1,-4.343168E-2,4.2915115E0,-7.8341615E-1,7.2039473E-1,7.9054195E-1,1.4946816E0,-6.4421296E-2,-3.7625661E-1,1.552183E-1,-1.0891981E-1,-5.8931924E-2,-2.4627422E-1,-8.611167E-2,1.6164318E-1,-3.7347934E-1,-2.4485973E-1,-2.4925664E-1,1.9674553E-1,-2.522034E-1,4.0385273E-1,-2.483404E-1,3.1612394E-3],"split_indices":[15,3,0,0,0,15,0,2,1,12,3,2,14,10,14,15,6,3,8,2,12,0,0,0,0,0,0,0,0,0,0,0,0,0,0,0,0],"split_type":[0,0,0,0,0,0,0,0,0,0,0,0,0,0,0,0,0,0,0,0,0,0,0,0,0,0,0,0,0,0,0,0,0,0,0,0,0],"sum_hessian":[5.3982837E2,1.5964857E2,3.8017978E2,1.0871323E0,1.5856145E2,3.515157E2,2.8664091E1,1.4146184E2,2.1005385E2,2.2348677E1,1.1911316E2,7.533031E1,1.3472354E2,2.0082188E1,2.266488E0,4.2485954E1,7.66272E1,7.151641E1,3.8139012E0,3.7038887E0,1.3101965E2,1.0208251E0,1.9061363E1,1.1494701E0,1.117018E0,1.069101E1,3.1794943E1,6.778462E1,8.842581E0,5.9091507E1,1.2424902E1,2.7490292E0,1.064872E0,1.4510957E0,2.2527928E0,1.2575017E2,5.2694855E0],"tree_param":{"num_deleted":"0","num_feature":"16","num_nodes":"37","size_leaf_vector":"1"}},{"base_weights":[2.691179E-3,1.2332219E0,-4.6118146E-1,3.7158012E-1,8.2239814E-2,-5.8638906E-1,3.6062264E-1,-7.726335E-1,-3.924412E-1,-1.0487529E0,-6.3514996E-1,-2.210587E-1,-6.688792E-1,-7.059337E-1,-1.1554961E0,-5.073533E-1,-9.430499E-1,-2.8918085E-1,3.0571985E-1,-8.9018244E-1,-3.6936978E-1,-2.955786E-1,-1.1490158E-1,-5.1351957E-2,-3.5393566E-1,-3.1047243E-1,-1.1520158E-1,-2.9784122E-1,5.5107377E-2,-9.7681664E-2,2.2959384E-1,1.6211957E-1,-2.8813192E-1,-3.1035104E-1,-7.108262E-2,1.5846989E-1,-1.3591126E-1],"categories":[],"categories_nodes":[],"categories_segments":[],"categories_sizes":[],"default_left":[0,0,0,0,0,0,0,0,0,0,0,0,0,0,0,0,0,0,0,0,0,0,0,0,0,0,0,0,0,0,0,0,0,0,0,0,0],"id":3,"left_children":[1,3,5,-1,-1,7,-1,9,11,13,15,17,19,21,23,25,27,29,31,33,35,-1,-1,-1,-1,-1,-1,-1,-1,-1,-1,-1,-1,-1,-1,-1,-1],"loss_changes":[2.7016147E2,3.2887268E-1,7.22868E1,0E0,0E0,1.126783E1,0E0,5.4981613E0,7.382866E0,1.1032791E0,3.886879E0,3.663144E0,3.6705952E0,9.7763443E-1,7.165909E-1,4.845131E0,1.9413071E0,3.6569877E0,4.052942E0,2.9593773E0,2.2931786E0,0E0,0E0,0E0,0E0,0E0,0E0,0E0,0E0,0E0,0E0,0E0,0E0,0E0,0E0,0E0,0E0],"parents":[2147483647,0,0,1,1,2,2,5,5,7,7,8,8,9,9,10,10,11,11,12,12,13,13,14,14,15,15,16,16,17,17,18,18,19,19,20,20],"right_children":[2,4,6,-1,-1,8,-1,10,12,14,16,18,20,22,24,26,28,30,32,34,36,-1,-1,-1,-1,-1,-1,-1,-1,-1,-1,-1,-1,-1,-1,-1,-1],"split_conditions":[-1.0902676E-1,-1.2797882E-1,2.3992856E0,3.7158012E-1,8.2239814E-2,6.4948285E-1,3.6062264E-1,9.650746E-1,6.3976437E-1,2.60211E-1,8.29541E-1,4.2915115E0,8.057726E-1,3.1850523E-1,1.3154486E-1,2.9683515E-1,1.4826461E0,1.4454589E0,1.4454589E0,7.7024174E-1,3.9426327E-2,-2.955786E-1,-1.1490158E-1,-5.1351957E-2,-3.5393566E-1,-3.1047243E-1,-1.1520158E-1,-2.9784122E-1,5.5107377E-2,-9.7681664E-2,2.2959384E-1,1.6211957E-1,-2.8813192E-1,-3.1035104E-1,-7.108262E-2,1.5846989E-1,-1.3591126E-1],"split_indices":[8,13,0,0,0,2,0,4,15,15,15,6,1,11,5,2,10,1,1,8,12,0,0,0,0,0,0,0,0,0,0,0,0,0,0,0,0],"split_type":[0,0,0,0,0,0,0,0,0,0,0,0,0,0,0,0,0,0,0,0,0,0,0,0,0,0,0,0,0,0,0,0,0,0,0,0,0],"sum_hessian":[4.7129895E2,1.2857231E2,3.4272665E2,1.2756549E2,1.006817E0,3.1933502E2,2.3391636E1,1.613806E2,1.5795442E2,5.1440395E1,1.099402E2,9.861562E1,5.9338795E1,1.4021611E1,3.7418785E1,7.956416E1,3.037604E1,8.772253E1,1.0893094E1,3.299047E1,2.6348324E1,6.4185967E0,7.603014E0,1.0949105E0,3.6323875E1,1.3677199E1,6.588696E1,2.920528E1,1.1707604E0,8.54617E1,2.2608283E0,9.673366E0,1.2197291E0,2.6542715E1,6.447758E0,1.793531E0,2.4554792E1],"tree_param":{"num_deleted":"0","num_feature":"16","num_nodes":"37","size_leaf_vector":"1"}},{"base_weights":[5.628172E-3,1.1453807E0,-3.7247103E-1,3.5002193E-1,-1.1848929E-1,-4.6772644E-1,3.3443356E-1,-5.296053E-1,1.1819109E-1,-3.0745554E-1,-6.4879984E-1,-2.3622818E-1,3.9382482E-1,-3.4937483E-1,6.1999536E-1,-6.9406295E-1,5.1413212E-2,9.006982E-2,-8.171984E-1,8.8599384E-2,1.1370465E0,-2.949266E-1,-8.4450245E-2,3.277106E-1,-1.0252988E-1,-2.9113686E-1,-1.7637956E-1,1.2847328E-1,-2.151885E-1,-9.6682616E-2,1.8014902E-1,-4.7516108E-2,-3.0321753E-1,2.2672728E-1,-2.0181818E-1,4.2159006E-1,3.803744E-2],"categories":[],"categories_nodes":[],"categories_segments":[],"categories_sizes":[],"default_left":[0,0,0,0,0,0,0,0,0,0,0,0,0,0,0,0,0,0,0,0,0,0,0,0,0,0,0,0,0,0,0,0,0,0,0,0,0],"id":4,"left_children":[1,3,5,-1,-1,7,-1,9,11,13,15,17,19,21,23,25,27,29,31,33,35,-1,-1,-1,-1,-1,-1,-1,-1,-1,-1,-1,-1,-1,-1,-1,-1],"loss_changes":[1.7828653E2,3.8513794E0,4.4533566E1,0E0,0E0,1.0673767E1,0E0,6.8148117E0,2.9040017E0,3.886757E0,5.4711227E0,2.5784254E0,3.656169E0,3.635642E0,2.3916974E0,4.1567307E0,3.5932007E0,2.1639264E0,4.5845485E-1,7.022248E0,1.1055183E0,0E0,0E0,0E0,0E0,0E0,0E0,0E0,0E0,0E0,0E0,0E0,0E0,0E0,0E0,0E0,0E0],"parents":[2147483647,0,0,1,1,2,2,5,5,7,7,8,8,9,9,10,10,11,11,12,12,13,13,14,14,15,15,16,16,17,17,18,18,19,19,20,20],"right_children":[2,4,6,-1,-1,8,-1,10,12,14,16,18,20,22,24,26,28,30,32,34,36,-1,-1,-1,-1,-1,-1,-1,-1,-1,-1,-1,-1,-1,-1,-1,-1],"split_conditions":[-4.2188205E-2,2.60211E-1,2.3992856E0,3.5002193E-1,-1.1848929E-1,1.1079249E0,3.3443356E-1,2.9816633E-1,4.7383088E-1,1.3626857E0,4.2915115E0,4.9590966E-1,8.32962E-1,2.9683515E-1,-5.4763467E-3,4.439762E-1,9.054517E-1,8.402628E-1,2.7920645E-1,4.9524263E-1,1.3852531E0,-2.949266E-1,-8.4450245E-2,3.277106E-1,-1.0252988E-1,-2.9113686E-1,-1.7637956E-1,1.2847328E-1,-2.151885E-1,-9.6682616E-2,1.8014902E-1,-4.7516108E-2,-3.0321753E-1,2.2672728E-1,-2.0181818E-1,4.2159006E-1,3.803744E-2],"split_indices":[14,15,0,0,0,2,0,15,12,8,6,10,5,2,15,10,15,14,9,5,1,0,0,0,0,0,0,0,0,0,0,0,0,0,0,0,0],"split_type":[0,0,0,0,0,0,0,0,0,0,0,0,0,0,0,0,0,0,0,0,0,0,0,0,0,0,0,0,0,0,0,0,0,0,0,0,0],"sum_hessian":[4.1172592E2,1.0205605E2,3.0966986E2,1.0089949E2,1.1565613E0,2.9167422E2,1.7995651E1,2.638998E2,2.7774408E1,9.340147E1,1.7049834E2,1.2213209E1,1.5561199E1,8.995877E1,3.442694E0,1.6015443E2,1.0343904E1,8.361817E0,3.8513918E0,1.1824385E1,3.736815E0,7.398429E0,8.256034E1,2.2176743E0,1.2250198E0,4.21752E1,1.1797923E2,7.238432E0,3.1054718E0,4.829197E0,3.532621E0,1.2873535E0,2.5640383E0,6.305834E0,5.518551E0,2.6437764E0,1.0930386E0],"tree_param":{"num_deleted":"0","num_feature":"16","num_nodes":"37","size_leaf_vector":"1"}},{"base_weights":[1.0632962E-2,1.0887618E0,-2.9346323E-1,3.3386898E-1,-1.0566712E-1,-3.694592E-1,3.164326E-1,-7.1792215E-1,-2.6394647E-1,-3.6858737E-1,-8.803077E-1,-8.8005275E-1,-2.2202834E-1,-8.589087E-1,3.8887236E-2,-9.498328E-1,7.922003E-2,2.8850475E-2,-9.9613E-1,-6.679943E-2,-3.8281432E-1,-2.7698913E-1,-5.6954686E-2,2.7058625E-1,-1.0084973E-1,7.512045E-2,-2.9692638E-1,2.7527046E-1,-2.2055875E-1,-3.308091E-2,-3.212776E-1,1.2441754E-1,-3.9495185E-2,-1.3003291E-1,1.6999778E-1],"categories":[],"categories_nodes":[],"categories_segments":[],"categories_sizes":[],"default_left":[0,0,0,0,0,0,0,0,0,0,0,0,0,0,0,0,0,0,0,0,0,0,0,0,0,0,0,0,0,0,0,0,0,0,0],"id":5,"left_children":[1,3,5,-1,-1,7,-1,9,11,13,15,17,19,21,23,25,27,-1,29,31,33,-1,-1,-1,-1,-1,-1,-1,-1,-1,-1,-1,-1,-1,-1],"loss_changes":[1.1949423E2,3.1805878E0,2.952078E1,0E0,0E0,9.733425E0,0E0,3.200821E0,5.1955147E0,4.3171563E0,2.857376E0,1.5643759E0,4.8857775E0,2.4579525E-1,4.403268E0,2.1147842E0,3.2285643E0,0E0,6.551895E-1,3.2189171E0,4.881939E0,0E0,0E0,0E0,0E0,0E0,0E0,0E0,0E0,0E0,0E0,0E0,0E0,0E0,0E0],"parents":[2147483647,0,0,1,1,2,2,5,5,7,7,8,8,9,9,10,10,11,11,12,12,13,13,14,14,15,15,16,16,18,18,19,19,20,20],"right_children":[2,4,6,-1,-1,8,-1,10,12,14,16,18,20,22,24,26,28,-1,30,32,34,-1,-1,-1,-1,-1,-1,-1,-1,-1,-1,-1,-1,-1,-1],"split_conditions":[-6.1276174E-1,5.9959435E-1,2.3992856E0,3.3386898E-1,-1.0566712E-1,9.650746E-1,3.164326E-1,2.60211E-1,2.9683515E-1,2.940236E-1,5.950524E-1,-8.138702E-2,4.8794302E-1,5.082318E-1,3.91329E-1,8.218963E-2,-4.5013136E-1,2.8850475E-2,3.617551E-1,2.1637137E-1,1.4946816E0,-2.7698913E-1,-5.6954686E-2,2.7058625E-1,-1.0084973E-1,7.512045E-2,-2.9692638E-1,2.7527046E-1,-2.2055875E-1,-3.308091E-2,-3.212776E-1,1.2441754E-1,-3.9495185E-2,-1.3003291E-1,1.6999778E-1],"split_indices":[15,14,0,0,0,4,0,15,2,1,1,15,15,5,5,8,11,0,1,9,12,0,0,0,0,0,0,0,0,0,0,0,0,0,0],"split_type":[0,0,0,0,0,0,0,0,0,0,0,0,0,0,0,0,0,0,0,0,0,0,0,0,0,0,0,0,0,0,0,0,0,0,0],"sum_hessian":[3.6249838E2,7.918371E1,2.8331467E2,7.8103264E1,1.080447E0,2.6888446E2,1.4430208E1,6.1144966E1,2.077395E2,2.0440914E1,4.0704052E1,1.1959914E1,1.9577959E2,8.774509E0,1.1666404E1,3.7963417E1,2.7406368E0,1.2891929E0,1.0670721E1,1.00331345E2,9.544824E1,7.657574E0,1.1169349E0,3.108438E0,8.557966E0,1.0523561E0,3.691106E1,1.288064E0,1.452573E0,1.0234513E0,9.64727E0,1.1268313E1,8.9063034E1,9.113229E1,4.3159485E0],"tree_param":{"num_deleted":"0","num_feature":"16","num_nodes":"35","size_leaf_vector":"1"}},{"base_weights":[1.2884287E-2,1.0613949E0,-2.2658335E-1,3.2160294E-1,8.612126E-2,-2.8526762E-1,3.0122465E-1,-5.6453127E-1,-1.7792352E-1,6.996715E-3,-6.7458725E-1,-4.182807E-1,-6.31893E-2,5.481148E-1,-5.351095E-1,-7.9517645E-1,-4.1919747E-1,-6.5906507E-1,1.0835973E-2,4.8923844E-1,-1.4759338E-1,-1.5942541E-1,2.9580635E-1,-2.4347498E-1,-1.5977083E-3,-2.5001606E-1,5.2780784E-3,-2.3397282E-1,3.4438353E-2,-2.1971296E-1,-4.574531E-2,-2.588287E-1,6.4057484E-2,-3.0558389E-2,2.66383E-1,2.0594603E-1,-6.305533E-2],"categories":[],"categories_nodes":[],"categories_segments":[],"categories_sizes":[],"default_left":[0,0,0,0,0,0,0,0,0,0,0,0,0,0,0,0,0,0,0,0,0,0,0,0,0,0,0,0,0,0,0,0,0,0,0,0,0],"id":6,"left_children":[1,3,5,-1,-1,7,-1,9,11,13,15,17,19,21,23,25,27,29,31,33,35,-1,-1,-1,-1,-1,-1,-1,-1,-1,-1,-1,-1,-1,-1,-1,-1],"loss_changes":[8.1624825E1,1.8904114E-1,1.9402626E1,0E0,0E0,7.4964867E0,0E0,4.401701E0,5.06207E0,3.894748E0,1.4722137E0,6.1489763E0,5.9507895E0,3.6621013E0,9.6810424E-1,1.2168007E0,4.118814E0,1.3030243E0,4.141579E0,4.083146E0,5.893978E0,0E0,0E0,0E0,0E0,0E0,0E0,0E0,0E0,0E0,0E0,0E0,0E0,0E0,0E0,0E0,0E0],"parents":[2147483647,0,0,1,1,2,2,5,5,7,7,8,8,9,9,10,10,11,11,12,12,13,13,14,14,15,15,16,16,17,17,18,18,19,19,20,20],"right_children":[2,4,6,-1,-1,8,-1,10,12,14,16,18,20,22,24,26,28,30,32,34,36,-1,-1,-1,-1,-1,-1,-1,-1,-1,-1,-1,-1,-1,-1,-1,-1],"split_conditions":[-1.0902676E-1,-4.4993877E-1,2.3992856E0,3.2160294E-1,8.612126E-2,4.8216662E-1,3.0122465E-1,-5.4763467E-3,4.8725408E-1,5.389916E-1,6.4948285E-1,8.2580674E-1,5.423724E-1,1.2630723E-1,-1.5729769E-1,1.7404691E0,4.173074E-1,9.7133845E-1,-7.8341615E-1,7.7791405E-1,5.30532E-1,-1.5942541E-1,2.9580635E-1,-2.4347498E-1,-1.5977083E-3,-2.5001606E-1,5.2780784E-3,-2.3397282E-1,3.4438353E-2,-2.1971296E-1,-4.574531E-2,-2.588287E-1,6.4057484E-2,-3.0558389E-2,2.66383E-1,2.0594603E-1,-6.305533E-2],"split_indices":[8,11,0,0,0,1,0,15,10,12,2,2,1,12,15,15,5,1,3,12,10,0,0,0,0,0,0,0,0,0,0,0,0,0,0,0,0],"split_type":[0,0,0,0,0,0,0,0,0,0,0,0,0,0,0,0,0,0,0,0,0,0,0,0,0,0,0,0,0,0,0,0,0,0,0,0,0],"sum_hessian":[3.231314E2,5.9440117E1,2.6369128E2,5.825705E1,1.1830673E0,2.524227E2,1.1268576E1,6.890422E1,1.8351848E2,1.1277235E1,5.7626984E1,5.8442142E1,1.2507634E2,5.638214E0,5.639021E0,3.7708378E1,1.9918604E1,3.7092865E1,2.1349276E1,1.5941601E1,1.0913474E2,1.5654653E0,4.072749E0,3.355829E0,2.283192E0,3.5990982E1,1.7173961E0,1.1613292E1,8.305312E0,3.2014114E1,5.078753E0,3.407259E0,1.7942017E1,6.721364E0,9.220237E0,6.9222293E0,1.0221251E2],"tree_param":{"num_deleted":"0","num_feature":"16","num_nodes":"37","size_leaf_vector":"1"}},{"base_weights":[1.3094509E-2,1.0233196E0,-1.7836903E-1,3.1391644E-1,-3.0505122E-3,-2.2212909E-1,2.8646544E-1,-5.3690827E-1,-1.4140373E-1,-2.2512354E-1,-7.2126013E-1,-1.9480158E-1,2.4055918E-1,-6.544711E-1,3.700208E-2,-8.035097E-1,1.2622298E-1,-1.0062546E-1,-4.9190465E-1,-2.6692107E-1,3.9830932E-1,-2.4665895E-1,-4.610909E-2,1.563341E-1,-1.2903069E-1,3.4668565E-2,-2.5469655E-1,2.2215046E-1,-1.8715872E-1,-1.874538E-2,-3.3723763E-1,-1.6643973E-1,1.2958239E-1,3.2703805E-1,4.2778123E-2],"categories":[],"categories_nodes":[],"categories_segments":[],"categories_sizes":[],"default_left":[0,0,0,0,0,0,0,0,0,0,0,0,0,0,0,0,0,0,0,0,0,0,0,0,0,0,0,0,0,0,0,0,0,0,0],"id":7,"left_children":[1,3,5,-1,-1,7,-1,9,11,13,15,17,19,21,23,25,27,29,31,-1,33,-1,-1,-1,-1,-1,-1,-1,-1,-1,-1,-1,-1,-1,-1],"loss_changes":[5.7157516E1,1.1330986E0,1.2534702E1,0E0,0E0,6.024065E0,0E0,2.6333427E0,3.9713879E0,2.2218482E0,2.200429E0,4.689443E0,4.642202E0,4.9986863E-1,3.1799219E0,1.251091E0,2.0876195E0,4.9991636E0,2.593338E0,0E0,3.6999729E0,0E0,0E0,0E0,0E0,0E0,0E0,0E0,0E0,0E0,0E0,0E0,0E0,0E0,0E0],"parents":[2147483647,0,0,1,1,2,2,5,5,7,7,8,8,9,9,10,10,11,11,12,12,13,13,14,14,15,15,16,16,17,17,18,18,20,20],"right_children":[2,4,6,-1,-1,8,-1,10,12,14,16,18,20,22,24,26,28,30,32,-1,34,-1,-1,-1,-1,-1,-1,-1,-1,-1,-1,-1,-1,-1,-1],"split_conditions":[-4.2188205E-2,1.3716735E-1,2.3992856E0,3.1391644E-1,-3.0505122E-3,9.650746E-1,2.8646544E-1,2.60211E-1,1.1079249E0,2.7897218E-1,5.950524E-1,8.29541E-1,-5.4763467E-3,1.0838966E-1,5.6018865E-1,1.3121946E-1,-4.5013136E-1,1.0726601E0,1.2286707E0,-2.6692107E-1,2.2225566E-1,-2.4665895E-1,-4.610909E-2,1.563341E-1,-1.2903069E-1,3.4668565E-2,-2.5469655E-1,2.2215046E-1,-1.8715872E-1,-1.874538E-2,-3.3723763E-1,-1.6643973E-1,1.2958239E-1,3.2703805E-1,4.2778123E-2],"split_indices":[14,12,0,0,0,4,0,15,2,1,1,15,15,15,5,8,11,2,8,0,15,0,0,0,0,0,0,0,0,0,0,0,0,0,0],"split_type":[0,0,0,0,0,0,0,0,0,0,0,0,0,0,0,0,0,0,0,0,0,0,0,0,0,0,0,0,0,0,0,0,0,0,0],"sum_hessian":[2.9356424E2,4.608098E1,2.4748325E2,4.5062653E1,1.018326E0,2.390562E2,8.4270525E0,4.7639687E1,1.914165E2,1.8527039E1,2.911265E1,1.683688E2,2.3047707E1,6.4558773E0,1.207116E1,2.658447E1,2.5281787E0,1.2886096E2,3.9507835E1,2.2544162E0,2.0793291E1,4.355297E0,2.1005802E0,5.8708887E0,6.200272E0,1.1808023E0,2.5403667E1,1.3969394E0,1.1312393E0,1.25254395E2,3.6065726E0,3.736363E1,2.1442068E0,4.7309775E0,1.6062313E1],"tree_param":{"num_deleted":"0","num_feature":"16","num_nodes":"35","size_leaf_vector":"1"}},{"base_weights":[1.2369838E-2,3.0473843E-1,-1.3464364E-1,-1.6968036E-1,2.7518946E-1,-7.7712125E-1,-1.2860742E-1,-8.745766E-1,7.33517E-2,-2.6196396E-1,9.128372E-3,-8.581439E-2,-3.0374545E-1,-2.848137E-1,2.772535E-1,8.904961E-1,-4.110418E-2,-1.6686231E-1,1.3324241E-1,-7.468244E-2,-2.576674E-1,3.5788208E-1,-7.876864E-2,2.3425597E-1,-2.539459E-2],"categories":[],"categories_nodes":[],"categories_segments":[],"categories_sizes":[],"default_left":[0,0,0,0,0,0,0,0,0,0,0,0,0,0,0,0,0,0,0,0,0,0,0,0,0],"id":8,"left_children":[1,-1,3,5,-1,7,9,11,-1,13,15,17,-1,19,-1,21,23,-1,-1,-1,-1,-1,-1,-1,-1],"loss_changes":[4.0058777E1,0E0,8.887945E0,5.641742E0,0E0,1.6452503E0,3.9837666E0,1.3645668E0,0E0,3.2489614E0,4.80014E0,1.0144384E0,0E0,2.0276814E0,0E0,2.35181E0,3.743626E0,0E0,0E0,0E0,0E0,0E0,0E0,0E0,0E0],"parents":[2147483647,0,0,2,2,3,3,5,5,6,6,7,7,9,9,10,10,11,11,13,13,15,15,16,16],"right_children":[2,-1,4,6,-1,8,10,12,-1,14,16,18,-1,20,-1,22,24,-1,-1,-1,-1,-1,-1,-1,-1],"split_conditions":[4.435775E-1,3.0473843E-1,2.3992856E0,2.9683515E-1,2.7518946E-1,1.4946816E0,6.7783535E-1,2.6392072E-1,7.33517E-2,2.9392245E0,1.7173931E-1,4.9590966E-1,-3.0374545E-1,1.2413769E0,2.772535E-1,6.5621686E-1,6.975621E-2,-1.6686231E-1,1.3324241E-1,-7.468244E-2,-2.576674E-1,3.5788208E-1,-7.876864E-2,2.3425597E-1,-2.539459E-2],"split_indices":[0,0,0,2,0,12,1,1,0,9,14,10,0,14,0,9,9,0,0,0,0,0,0,0,0],"split_type":[0,0,0,0,0,0,0,0,0,0,0,0,0,0,0,0,0,0,0,0,0,0,0,0,0],"sum_hessian":[2.696265E2,3.370015E1,2.3592635E2,2.2913336E2,6.792981E0,1.3376942E1,2.1575641E2,1.2343412E1,1.0335295E0,1.09162636E2,1.0659378E2,2.078386E0,1.0265026E1,1.07845E2,1.3176342E0,4.845656E0,1.0174812E2,1.0748256E0,1.0035605E0,1.0285176E2,4.993238E0,3.8113585E0,1.0342976E0,4.2671857E0,9.748094E1],"tree_param":{"num_deleted":"0","num_feature":"16","num_nodes":"25","size_leaf_vector":"1"}},{"base_weights":[1.5222863E-2,9.592343E-1,-1.03611566E-1,3.0107453E-1,6.8327864E-3,-1.308507E-1,2.6201978E-1,-6.9955045E-1,-9.7346656E-2,-8.0524564E-1,6.1012402E-2,-5.83581E-1,-6.341524E-2,-7.827174E-2,-2.8859922E-1,-7.8197277E-1,1.7554608E-1,7.2836955E-3,-2.7120897E-1,-1.6552085E-1,1.2874906E-1,-2.8993595E-1,-1.05438E-1,1.0609748E-1,-2.3413097E-2,-1.14700854E-1,9.667431E-2],"categories":[],"categories_nodes":[],"categories_segments":[],"categories_sizes":[],"default_left":[0,0,0,0,0,0,0,0,0,0,0,0,0,0,0,0,0,0,0,0,0,0,0,0,0,0,0],"id":9,"left_children":[1,3,5,-1,-1,7,-1,9,11,13,-1,15,17,19,-1,21,-1,23,25,-1,-1,-1,-1,-1,-1,-1,-1],"loss_changes":[2.84798E1,1.1558971E0,6.118272E0,0E0,0E0,4.130481E0,0E0,1.3183317E0,3.4154372E0,1.1818266E0,0E0,3.5943456E0,2.8920708E0,9.684376E-1,0E0,6.128402E-1,0E0,4.394685E0,3.4185662E0,0E0,0E0,0E0,0E0,0E0,0E0,0E0,0E0],"parents":[2147483647,0,0,1,1,2,2,5,5,7,7,8,8,9,9,11,11,12,12,13,13,15,15,17,17,18,18],"right_children":[2,4,6,-1,-1,8,-1,10,12,14,-1,16,18,20,-1,22,-1,24,26,-1,-1,-1,-1,-1,-1,-1,-1],"split_conditions":[-6.1276174E-1,4.8225343E-1,2.3992856E0,3.0107453E-1,6.8327864E-3,2.9683515E-1,2.6201978E-1,1.4946816E0,2.56395E-1,2.6392072E-1,6.1012402E-2,-7.8341615E-1,7.915857E-1,5.461125E-1,-2.8859922E-1,7.137764E-1,1.7554608E-1,4.5481643E-1,9.7126406E-1,-1.6552085E-1,1.2874906E-1,-2.8993595E-1,-1.05438E-1,1.0609748E-1,-2.3413097E-2,-1.14700854E-1,9.667431E-2],"split_indices":[15,5,0,0,0,2,0,12,1,1,0,3,15,14,0,11,0,8,8,0,0,0,0,0,0,0,0],"split_type":[0,0,0,0,0,0,0,0,0,0,0,0,0,0,0,0,0,0,0,0,0,0,0,0,0,0,0],"sum_hessian":[2.5198756E2,2.7383461E1,2.246041E2,2.607687E1,1.3065901E0,2.1935455E2,5.2495527E0,1.1097939E1,2.082566E2,1.0031809E1,1.0661293E0,1.25283E1,1.957283E2,2.0453486E0,7.98646E0,1.0993146E1,1.5351546E0,1.4676015E2,4.896816E1,1.0129285E0,1.0324203E0,6.8240585E0,4.169087E0,2.8386076E1,1.1837408E2,4.154452E1,7.4236355E0],"tree_param":{"num_deleted":"0","num_feature":"16","num_nodes":"27","size_leaf_vector":"1"}},{"base_weights":[1.32133765E-2,9.588217E-1,-7.631987E-2,2.9477823E-1,7.9295605E-2,-9.762719E-2,2.4911925E-1,-3.5621947E-1,-4.227796E-2,-5.853036E-2,-5.721669E-1,1.9437954E-1,-1.0877728E-1,-3.3453393E-1,2.5975725E-1,-6.705391E-1,1.9205238E-1,-1.5158876E-2,6.065501E-1,5.413441E-1,-1.3885632E-1,-2.6855123E-1,1.298716E-2,2.1609068E-1,-1.8519177E-1,-2.4514824E-1,-3.0786883E-2,1.913215E-1,-1.0907674E-1,1.4650886E-1,-8.087137E-2,8.985788E-2,3.828009E-1,-2.027398E-1,2.8740612E-1,-5.72972E-2,1.0412424E-1],"categories":[],"categories_nodes":[],"categories_segments":[],"categories_sizes":[],"default_left":[0,0,0,0,0,0,0,0,0,0,0,0,0,0,0,0,0,0,0,0,0,0,0,0,0,0,0,0,0,0,0,0,0,0,0,0,0],"id":10,"left_children":[1,3,5,-1,-1,7,-1,9,11,13,15,17,19,21,23,25,27,29,31,33,35,-1,-1,-1,-1,-1,-1,-1,-1,-1,-1,-1,-1,-1,-1,-1,-1],"loss_changes":[2.0336193E1,8.3272934E-2,4.3229346E0,0E0,0E0,3.0681522E0,0E0,2.3993163E0,2.8314195E0,1.582486E0,1.7691092E0,3.4231827E0,2.8136885E0,2.0627258E0,3.8657355E0,1.5443487E0,1.0405945E0,3.6137533E0,2.3611717E0,3.8916492E0,3.4773812E0,0E0,0E0,0E0,0E0,0E0,0E0,0E0,0E0,0E0,0E0,0E0,0E0,0E0,0E0,0E0,0E0],"parents":[2147483647,0,0,1,1,2,2,5,5,7,7,8,8,9,9,10,10,11,11,12,12,13,13,14,14,15,15,16,16,17,17,18,18,19,19,20,20],"right_children":[2,4,6,-1,-1,8,-1,10,12,14,16,18,20,22,24,26,28,30,32,34,36,-1,-1,-1,-1,-1,-1,-1,-1,-1,-1,-1,-1,-1,-1,-1,-1],"split_conditions":[-1.0902676E-1,-1.2887903E-1,2.3992856E0,2.9477823E-1,7.9295605E-2,9.650746E-1,2.4911925E-1,2.60211E-1,5.082318E-1,3.1850523E-1,5.950524E-1,7.6705396E-1,1.7173931E-1,4.6771166E-1,1.9984076E0,7.1058875E-1,7.815439E-1,4.4664478E-1,9.111327E-1,5.950524E-1,1.9984076E0,-2.6855123E-1,1.298716E-2,2.1609068E-1,-1.8519177E-1,-2.4514824E-1,-3.0786883E-2,1.913215E-1,-1.0907674E-1,1.4650886E-1,-8.087137E-2,8.985788E-2,3.828009E-1,-2.027398E-1,2.8740612E-1,-5.72972E-2,1.0412424E-1],"split_indices":[8,13,0,0,0,4,0,15,5,11,1,12,14,9,11,8,10,8,1,1,11,0,0,0,0,0,0,0,0,0,0,0,0,0,0,0,0],"split_type":[0,0,0,0,0,0,0,0,0,0,0,0,0,0,0,0,0,0,0,0,0,0,0,0,0,0,0,0,0,0,0,0,0,0,0,0,0],"sum_hessian":[2.3833624E2,1.9774813E1,2.1856143E2,1.8719252E1,1.0555614E0,2.1441513E2,4.1463003E0,3.6843945E1,1.7757118E2,1.6024626E1,2.0819319E1,3.8529507E1,1.3904167E2,8.555055E0,7.4695716E0,1.8553633E1,2.265686E0,2.6182251E1,1.2347258E1,5.3969035E0,1.3364478E2,2.8929944E0,5.6620607E0,5.0149565E0,2.4546146E0,1.4397646E1,4.155987E0,1.1752522E0,1.0904337E0,8.479812E0,1.7702438E1,9.457355E0,2.889903E0,1.2177832E0,4.17912E0,1.2124394E2,1.2400835E1],"tree_param":{"num_deleted":"0","num_feature":"16","num_nodes":"37","size_leaf_vector":"1"}},{"base_weights":[1.3426253E-2,2.8607503E-1,-5.5122275E-2,-6.0402215E-1,-2.7846368E-2,-7.2804123E-1,6.1081212E-2,-4.4700637E-2,2.345623E-1,-2.0289794E-3,-2.758889E-1,-4.7531703E-1,-1.94928E-2,-6.80022E-1,1.3324212E-1,1.2428872E-2,-3.210563E-1,-2.6614136E-1,-8.812916E-2,-4.939965E-3,2.4404205E-1,-2.030795E-1,3.237327E-2],"categories":[],"categories_nodes":[],"categories_segments":[],"categories_sizes":[],"default_left":[0,0,0,0,0,0,0,0,0,0,0,0,0,0,0,0,0,0,0,0,0,0,0],"id":11,"left_children":[1,-1,3,5,7,9,-1,11,-1,-1,-1,13,15,17,-1,19,21,-1,-1,-1,-1,-1,-1],"loss_changes":[1.4776449E1,0E0,3.1854355E0,1.1575515E0,2.8300388E0,1.2311311E0,0E0,2.1788607E0,0E0,0E0,0E0,2.3921642E0,1.8472024E0,4.9761963E-1,0E0,4.043412E0,2.8767014E0,0E0,0E0,0E0,0E0,0E0,0E0],"parents":[2147483647,0,0,2,2,3,3,4,4,5,5,7,7,11,11,12,12,13,13,15,15,16,16],"right_children":[2,-1,4,6,8,10,-1,12,-1,-1,-1,14,16,18,-1,20,22,-1,-1,-1,-1,-1,-1],"split_conditions":[4.435775E-1,2.8607503E-1,2.9683515E-1,2.5585382E0,2.3992856E0,2.6392072E-1,6.1081212E-2,2.56395E-1,2.345623E-1,-2.0289794E-3,-2.758889E-1,-7.8341615E-1,1.2470497E0,7.137764E-1,1.3324212E-1,1.1331837E0,8.42133E-1,-2.6614136E-1,-8.812916E-2,-4.939965E-3,2.4404205E-1,-2.030795E-1,3.237327E-2],"split_indices":[0,0,2,7,0,1,0,1,0,0,0,3,15,11,0,15,10,0,0,0,0,0,0],"split_type":[0,0,0,0,0,0,0,0,0,0,0,0,0,0,0,0,0,0,0,0,0,0,0],"sum_hessian":[2.2746718E2,1.4580571E1,2.128866E2,9.076968E0,2.0380963E2,7.9540815E0,1.1228868E0,2.0057939E2,3.2302492E0,1.8866519E0,6.0674295E0,1.0104912E1,1.9047447E2,8.477842E0,1.6270698E0,1.73109E2,1.7365477E1,4.67455E0,3.8032923E0,1.6802733E2,5.081668E0,9.175413E0,8.190063E0],"tree_param":{"num_deleted":"0","num_feature":"16","num_nodes":"23","size_leaf_vector":"1"}},{"base_weights":[1.0499392E-2,8.957526E-1,-4.445674E-2,2.7882996E-1,7.621661E-2,-5.7457928E-2,2.1899112E-1,-5.305789E-1,-3.6611065E-2,-2.5137427E-1,-9.194609E-2,6.1927263E-2,-1.3250485E-1,-1.4647868E-1,1.1389162E-1,1.3200003E-1,-2.9642662E-1,6.939528E-1,-1.694789E-1,-2.2338985E-1,5.0978906E-2,1.7581668E-1,-1.6159968E-1,-1.2777092E-1,4.4669685E-1,-1.6549055E-1,-2.9318636E-2],"categories":[],"categories_nodes":[],"categories_segments":[],"categories_sizes":[],"default_left":[0,0,0,0,0,0,0,0,0,0,0,0,0,0,0,0,0,0,0,0,0,0,0,0,0,0,0],"id":12,"left_children":[1,3,5,-1,-1,7,-1,9,11,-1,13,15,17,-1,-1,19,21,23,25,-1,-1,-1,-1,-1,-1,-1,-1],"loss_changes":[1.0804244E1,4.441166E-2,2.1490915E0,0E0,0E0,2.019802E0,0E0,1.0892394E0,1.8895627E0,0E0,1.0614643E0,2.52205E0,3.2107463E0,0E0,0E0,2.899548E0,3.8387508E0,4.668145E0,2.6247976E0,0E0,0E0,0E0,0E0,0E0,0E0,0E0,0E0],"parents":[2147483647,0,0,1,1,2,2,5,5,7,7,8,8,10,10,11,11,12,12,15,15,16,16,17,17,18,18],"right_children":[2,4,6,-1,-1,8,-1,10,12,-1,14,16,18,-1,-1,20,22,24,26,-1,-1,-1,-1,-1,-1,-1,-1],"split_conditions":[-4.2188205E-2,-1.1978171E0,2.3992856E0,2.7882996E-1,7.621661E-2,2.9683515E-1,2.1899112E-1,6.34399E-1,4.1203234E-1,-2.5137427E-1,6.5307623E-1,9.9133724E-1,1.7173931E-1,-1.4647868E-1,1.1389162E-1,1.8842095E-1,3.6535057E-1,8.9633626E-1,3.747315E-1,-2.2338985E-1,5.0978906E-2,1.7581668E-1,-1.6159968E-1,-1.2777092E-1,4.4669685E-1,-1.6549055E-1,-2.9318636E-2],"split_indices":[14,4,0,0,0,2,0,10,15,0,14,9,14,0,0,8,5,2,10,0,0,0,0,0,0,0,0],"split_type":[0,0,0,0,0,0,0,0,0,0,0,0,0,0,0,0,0,0,0,0,0,0,0,0,0,0,0],"sum_hessian":[2.2026213E2,1.1980266E1,2.0828186E2,1.0956782E1,1.0234834E0,2.0575345E2,2.5284116E0,7.6514735E0,1.9810197E2,3.9638505E0,3.687623E0,9.787845E1,1.00223526E2,1.9845002E0,1.703123E0,8.239795E1,1.5480503E1,3.5309E0,9.669263E1,2.6445668E0,7.975338E1,3.0284524E0,1.2452051E1,1.6587504E0,1.8721497E0,1.4227211E1,8.2465416E1],"tree_param":{"num_deleted":"0","num_feature":"16","num_nodes":"27","size_leaf_vector":"1"}},{"base_weights":[8.794937E-3,2.6514575E-1,-3.3981342E-2,-1.3547827E-1,6.405488E-2,-1.555247E-1,2.4302064E-1,-3.9536902E-1,1.3204218E-1,-1.2323784E-1,-7.218918E-1,4.2746922E-1,-8.043547E-1,6.179501E-1,3.541984E-2,-2.3889521E-1,2.090112E-2,-2.6245102E-1,-1.9495543E-2,3.5783234E-1,-4.8522034E-1,-9.651429E-1,5.8668908E-2,-1.5915294E-1,1.1426055E0,3.5111147E-1,-1.1653162E-2,3.690015E-2,-1.2928021E-1,-9.981736E-2,1.0009564E-1,-2.4815707E-2,-1.9291362E-1,-5.8524735E-2,-3.1680012E-1,2.7876988E-1,-1.7422652E-1,5.5280256E-1,2.1878654E-2,-3.2103214E-2,9.724135E-2],"categories":[],"categories_nodes":[],"categories_segments":[],"categories_sizes":[],"default_left":[0,0,0,0,0,0,0,0,0,0,0,0,0,0,0,0,0,0,0,0,0,0,0,0,0,0,0,0,0,0,0,0,0,0,0,0,0,0,0,0,0],"id":13,"left_children":[1,-1,3,5,7,9,-1,11,13,15,17,19,21,23,25,27,29,-1,-1,-1,31,33,-1,35,37,-1,39,-1,-1,-1,-1,-1,-1,-1,-1,-1,-1,-1,-1,-1,-1],"loss_changes":[8.069232E0,0E0,2.0557756E0,2.0480497E0,3.342138E0,1.7421443E0,0E0,4.997358E0,4.320967E0,1.6044048E0,4.6506524E-1,4.241688E0,1.7295976E0,6.4124675E0,4.192507E0,3.757954E0,4.936478E0,0E0,0E0,0E0,1.4389849E-1,3.834362E-1,0E0,3.7686536E0,6.7887354E0,0E0,2.4712205E0,0E0,0E0,0E0,0E0,0E0,0E0,0E0,0E0,0E0,0E0,0E0,0E0,0E0,0E0],"parents":[2147483647,0,0,2,2,3,3,4,4,5,5,7,7,8,8,9,9,10,10,11,11,12,12,13,13,14,14,15,15,16,16,20,20,21,21,23,23,24,24,26,26],"right_children":[2,-1,4,6,8,10,-1,12,14,16,18,20,22,24,26,28,30,-1,-1,-1,32,34,-1,36,38,-1,40,-1,-1,-1,-1,-1,-1,-1,-1,-1,-1,-1,-1,-1,-1],"split_conditions":[-1.0902676E-1,2.6514575E-1,6.7783535E-1,2.9392245E0,4.3789425E-1,1.2413769E0,2.4302064E-1,3.4204152E-1,5.789533E-1,6.8474764E-1,8.29541E-1,2.60211E-1,1.2286707E0,6.5307623E-1,-3.850297E-1,5.193724E-1,6.051746E-1,-2.6245102E-1,-1.9495543E-2,3.5783234E-1,9.261841E-1,6.511131E-1,5.8668908E-2,7.1605915E-1,9.204856E-1,3.5111147E-1,8.237771E-1,3.690015E-2,-1.2928021E-1,-9.981736E-2,1.0009564E-1,-2.4815707E-2,-1.9291362E-1,-5.8524735E-2,-3.1680012E-1,2.7876988E-1,-1.7422652E-1,5.5280256E-1,2.1878654E-2,-3.2103214E-2,9.724135E-2],"split_indices":[8,0,1,9,2,14,0,9,2,2,15,15,8,14,15,8,8,0,0,0,1,5,0,5,14,0,9,0,0,0,0,0,0,0,0,0,0,0,0,0,0],"split_type":[0,0,0,0,0,0,0,0,0,0,0,0,0,0,0,0,0,0,0,0,0,0,0,0,0,0,0,0,0,0,0,0,0,0,0,0,0,0,0,0,0],"sum_hessian":[2.1377794E2,9.047263E0,2.0473068E2,1.0040227E2,1.0432842E2,9.913601E1,1.2662518E0,1.2827992E1,9.150043E1,9.494129E1,4.1947203E0,4.244098E0,8.583895E0,1.4281934E1,7.721849E1,5.2310143E1,4.263115E1,3.1334252E0,1.0612948E0,2.14152E0,2.1025782E0,7.42476E0,1.1591343E0,6.0369086E0,8.245025E0,2.1248355E0,7.509366E1,1.8259588E1,3.4050556E1,1.9978132E1,2.2653017E1,1.0215181E0,1.0810602E0,1.1157097E0,6.3090506E0,1.3493769E0,4.687532E0,4.546704E0,3.6983206E0,5.9015747E1,1.607791E1],"tree_param":{"num_deleted":"0","num_feature":"16","num_nodes":"41","size_leaf_vector":"1"}},{"base_weights":[7.2407876E-3,6.1248934E-1,-3.8950082E-2,8.326072E-1,-4.6402538E-1,-4.5861715E-1,-1.6216632E-2,4.8513404E-1,4.9635783E-1,-1.8749015E-1,-1.8678578E-2,-6.0315055E-1,7.624741E-2,-1.3278176E-1,6.0278878E-2,2.8197372E-1,-2.2062352E-1,-2.5066307E-1,-2.13693E-1,5.4114494E-2,-4.05854E-1,1.4552314E-2,6.4213324E-1,-2.0691101E-1,8.5800916E-2,-2.6360223E-1,2.9995057E-1,4.2916724E-1,-5.089901E-1,1.8507996E-1,-1.3902731E-1,4.214504E-2,1.008214E0,1.269597E-1,-1.6822332E-1,-1.0771544E-1,1.9065978E-1,-1.7356417E-1,3.424438E-1,-1.7694332E-1,5.6810934E-2,2.69391E-2,3.3700266E-1,-1.404042E-1,1.2500648E-2,2.0257765E-1,-2.2799487E-1,4.121339E-1,-6.485831E-2],"categories":[],"categories_nodes":[],"categories_segments":[],"categories_sizes":[],"default_left":[0,0,0,0,0,0,0,0,0,0,0,0,0,0,0,0,0,0,0,0,0,0,0,0,0,0,0,0,0,0,0,0,0,0,0,0,0,0,0,0,0,0,0,0,0,0,0,0,0],"id":14,"left_children":[1,3,5,7,9,11,13,15,-1,-1,-1,17,-1,19,21,-1,-1,-1,23,25,27,29,31,-1,-1,33,35,37,39,41,43,45,47,-1,-1,-1,-1,-1,-1,-1,-1,-1,-1,-1,-1,-1,-1,-1,-1],"loss_changes":[5.891074E0,3.926659E0,1.8617868E0,2.8421144E0,1.6660875E-1,1.186717E0,1.6744859E0,6.4556017E0,0E0,0E0,0E0,6.0312295E-1,0E0,3.8172412E0,3.0112529E0,0E0,0E0,0E0,1.2845731E0,3.5962503E0,2.8308082E0,2.8091862E0,1.769305E0,0E0,0E0,4.3547373E0,5.9459906E0,3.443534E0,1.6613927E0,4.439834E0,3.3776617E0,2.6305685E0,2.570539E0,0E0,0E0,0E0,0E0,0E0,0E0,0E0,0E0,0E0,0E0,0E0,0E0,0E0,0E0,0E0,0E0],"parents":[2147483647,0,0,1,1,2,2,3,3,4,4,5,5,6,6,7,7,11,11,13,13,14,14,18,18,19,19,20,20,21,21,22,22,25,25,26,26,27,27,28,28,29,29,30,30,31,31,32,32],"right_children":[2,4,6,8,10,12,14,16,-1,-1,-1,18,-1,20,22,-1,-1,-1,24,26,28,30,32,-1,-1,34,36,38,40,42,44,46,48,-1,-1,-1,-1,-1,-1,-1,-1,-1,-1,-1,-1,-1,-1,-1,-1],"split_conditions":[4.8811186E-2,7.915857E-1,2.56395E-1,3.3612168E-1,1.171139E0,-7.8341615E-1,5.281314E-1,2.3490837E-1,4.9635783E-1,-1.8749015E-1,-1.8678578E-2,7.137764E-1,7.624741E-2,7.030699E-1,1.2286707E0,2.8197372E-1,-2.2062352E-1,-2.5066307E-1,4.7034255E-1,-7.8341615E-1,2.2522119E-1,4.886567E-1,7.867809E-1,-2.0691101E-1,8.5800916E-2,4.0823808E-1,4.258216E-1,7.0434324E-2,1.2486166E0,4.6771166E-1,6.1432683E-1,9.56287E-1,9.9133724E-1,1.269597E-1,-1.6822332E-1,-1.0771544E-1,1.9065978E-1,-1.7356417E-1,3.424438E-1,-1.7694332E-1,5.6810934E-2,2.69391E-2,3.3700266E-1,-1.404042E-1,1.2500648E-2,2.0257765E-1,-2.2799487E-1,4.121339E-1,-6.485831E-2],"split_indices":[9,15,1,15,15,3,12,12,0,0,0,11,0,5,8,0,0,0,8,3,14,9,14,0,0,8,9,15,5,9,9,1,9,0,0,0,0,0,0,0,0,0,0,0,0,0,0,0,0],"split_type":[0,0,0,0,0,0,0,0,0,0,0,0,0,0,0,0,0,0,0,0,0,0,0,0,0,0,0,0,0,0,0,0,0,0,0,0,0,0,0,0,0,0,0,0,0,0,0,0,0],"sum_hessian":[2.0886612E2,1.3940527E1,1.949256E2,1.1762075E1,2.1784513E0,9.031289E0,1.858943E2,9.384812E0,2.3772633E0,1.158721E0,1.0197302E0,7.636578E0,1.3947114E0,7.336449E1,1.1252982E2,7.00475E0,2.3800626E0,4.0653443E0,3.5712337E0,4.4030758E1,2.9333725E1,1.05281044E2,7.248779E0,1.6342254E0,1.9370084E0,1.9175812E1,2.4854946E1,2.8772733E0,2.6456451E1,4.9790684E1,5.5490356E1,3.1694052E0,4.0793734E0,5.6628118E0,1.35130005E1,8.362696E0,1.649225E1,1.26933E0,1.6079433E0,2.3851553E1,2.6048987E0,4.6195152E1,3.5955322E0,1.9109093E1,3.6381264E1,1.8597128E0,1.3096924E0,3.047501E0,1.0318722E0],"tree_param":{"num_deleted":"0","num_feature":"16","num_nodes":"49","size_leaf_vector":"1"}},{"base_weights":[3.929746E-3,2.5094908E-1,-2.0683672E-2,-3.2421328E-2,2.1103589E-1,-7.256089E-2,1.6982768E-1,-1.4956664E-1,1.19785905E-1,4.833438E-1,-4.0127203E-1,-2.1658738E-1,1.035785E-1,-5.925692E-1,2.401783E-1,5.9527934E-1,-2.0724532E-1,-2.8565094E-1,-9.235401E-2,2.4845907E-2,-8.564855E-2,-3.080655E-2,2.6523185E-1,-2.659668E-1,7.959655E-2,1.7497984E-1,-4.8325613E-2,3.4536472E-1,1.0092412E-1,-1.7758203E-1,1.0106601E-1],"categories":[],"categories_nodes":[],"categories_segments":[],"categories_sizes":[],"default_left":[0,0,0,0,0,0,0,0,0,0,0,0,0,0,0,0,0,0,0,0,0,0,0,0,0,0,0,0,0,0,0],"id":15,"left_children":[1,-1,3,5,-1,7,9,11,13,15,17,19,21,23,25,27,-1,-1,29,-1,-1,-1,-1,-1,-1,-1,-1,-1,-1,-1,-1],"loss_changes":[4.2301974E0,0E0,1.7283218E0,1.6230693E0,0E0,2.4804628E0,6.1305737E0,2.0442557E0,4.2663183E0,3.284175E0,2.0048504E0,1.9742856E0,4.215908E0,2.0613122E0,5.8548455E0,2.5620232E0,0E0,0E0,2.126507E0,0E0,0E0,0E0,0E0,0E0,0E0,0E0,0E0,0E0,0E0,0E0,0E0],"parents":[2147483647,0,0,2,2,3,3,5,5,6,6,7,7,8,8,9,9,10,10,11,11,12,12,13,13,14,14,15,15,18,18],"right_children":[2,-1,4,6,-1,8,10,12,14,16,18,20,22,24,26,28,-1,-1,30,-1,-1,-1,-1,-1,-1,-1,-1,-1,-1,-1,-1],"split_conditions":[4.435775E-1,2.5094908E-1,2.3992856E0,9.628541E-1,2.1103589E-1,2.1968745E-1,8.9374465E-1,8.6700374E-1,3.3218494E-1,2.294861E0,5.4784316E-1,4.2621568E-1,8.32962E-1,8.184544E-1,6.690213E-1,8.6597836E-1,-2.0724532E-1,-2.8565094E-1,9.863899E-1,2.4845907E-2,-8.564855E-2,-3.080655E-2,2.6523185E-1,-2.659668E-1,7.959655E-2,1.7497984E-1,-4.8325613E-2,3.4536472E-1,1.0092412E-1,-1.7758203E-1,1.0106601E-1],"split_indices":[0,0,0,5,0,11,14,14,14,11,10,8,5,8,10,1,0,0,1,0,0,0,0,0,0,0,0,0,0,0,0],"split_type":[0,0,0,0,0,0,0,0,0,0,0,0,0,0,0,0,0,0,0,0,0,0,0,0,0,0,0,0,0,0,0],"sum_hessian":[2.0458406E2,4.9273505E0,1.9965671E2,1.9741205E2,2.2446582E0,1.6525565E2,3.2156406E1,1.181692E2,4.708644E1,2.0859077E1,1.1297329E1,9.354687E1,2.462233E1,6.2403946E0,4.0846046E1,1.9493715E1,1.3653628E0,3.310822E0,7.9865074E0,1.7463848E1,7.608302E1,2.01625E1,4.459829E0,4.6228113E0,1.6175836E0,2.1774704E1,1.9071344E1,5.098051E0,1.4395664E1,3.5156553E0,4.470852E0],"tree_param":{"num_deleted":"0","num_feature":"16","num_nodes":"31","size_leaf_vector":"1"}},{"base_weights":[1.9617085E-3,2.2978403E-1,-1.8841563E-2,-5.779706E-1,-1.3492699E-3,-2.4249631E-1,6.44867E-2,8.27645E-1,-1.5804216E-2,3.064394E-1,6.1591323E-2,-2.4848431E-1,2.0741854E-2,1.3969755E-1,-5.801714E-1,6.743883E-1,-5.3768293E-3,-1.0187929E-1,2.3411137E-1,2.561303E-1,-2.2632554E-1,4.215761E-1,3.1252183E-2,7.9873605E-3,-1.204305E-1],"categories":[],"categories_nodes":[],"categories_segments":[],"categories_sizes":[],"default_left":[0,0,0,0,0,0,0,0,0,0,0,0,0,0,0,0,0,0,0,0,0,0,0,0,0],"id":16,"left_children":[1,-1,3,5,7,-1,-1,9,11,-1,-1,13,15,17,19,21,23,-1,-1,-1,-1,-1,-1,-1,-1],"loss_changes":[3.2307336E0,0E0,1.9355428E0,1.2703006E0,2.3255174E0,0E0,0E0,1.9146848E-1,1.6263499E0,0E0,0E0,3.4231052E0,2.8323963E0,4.1850204E0,4.189845E0,2.5101137E0,2.0426278E0,0E0,0E0,0E0,0E0,0E0,0E0,0E0,0E0],"parents":[2147483647,0,0,2,2,3,3,4,4,7,7,8,8,11,11,12,12,13,13,14,14,15,15,16,16],"right_children":[2,-1,4,6,8,-1,-1,10,12,-1,-1,14,16,18,20,22,24,-1,-1,-1,-1,-1,-1,-1,-1],"split_conditions":[-1.0902676E-1,2.2978403E-1,-1.8863606E-1,9.261841E-1,-1.451956E-1,-2.4249631E-1,6.44867E-2,5.933818E-1,3.6574554E-1,3.064394E-1,6.1591323E-2,5.471995E-1,3.943463E-1,5.933818E-1,6.975621E-2,4.7315902E-1,1.2470497E0,-1.0187929E-1,2.3411137E-1,2.561303E-1,-2.2632554E-1,4.215761E-1,3.1252183E-2,7.9873605E-3,-1.204305E-1],"split_indices":[8,0,12,1,12,0,0,9,8,0,0,5,8,9,9,2,15,0,0,0,0,0,0,0,0],"split_type":[0,0,0,0,0,0,0,0,0,0,0,0,0,0,0,0,0,0,0,0,0,0,0,0,0],"sum_hessian":[2.013673E2,4.3883867E0,1.969789E2,5.003516E0,1.9197539E2,3.8621273E0,1.1413888E0,2.32593E0,1.8964946E2,1.2845479E0,1.0413822E0,2.4956728E1,1.6469273E2,1.1765772E1,1.3190956E1,5.374338E0,1.5931839E2,6.9993877E0,4.766384E0,1.0067022E0,1.2184254E1,1.7135656E0,3.6607728E0,1.4827092E2,1.1047463E1],"tree_param":{"num_deleted":"0","num_feature":"16","num_nodes":"25","size_leaf_vector":"1"}},{"base_weights":[3.8992632E-3,5.761767E-1,-1.7041124E-2,2.8319117E-1,-5.5041406E-2,-2.5784078E-1,1.3285869E-2,-1.1747149E-1,8.710675E-2,-4.3974268E-1,3.6102018E-1,2.9567635E-1,-3.9243966E-2,3.6590416E-2,-7.154642E-1,8.106618E-1,-2.0489237E-1,5.5009685E-3,9.201307E-1,6.1585356E-2,-2.3554303E-1,5.2180916E-1,-5.8542335E-1,-2.2644147E-1,-3.2803753E-1,-1.5307056E-2,3.293496E-1,1.7607044E-1,-6.2464595E-1,1.5293673E0,2.771737E-1,-9.387484E-2,3.0156723E-1,-6.552682E-1,-7.9977E-2,-9.0340376E-2,2.5291154E-1,-4.664041E-2,-2.0811793E-1,1.2931533E-1,-1.8962125E-1,-6.627306E-2,1.5047307E-1,-2.6277888E-1,2.554869E-2,5.972764E-1,2.2050485E-2,-2.1014525E-1,2.4275003E-1,-2.2298202E-1,-1.6037532E-3,4.503266E-1,6.5975666E-2,-2.2317491E-1,5.549835E-2,1.1975845E-1,-6.5065E-2],"categories":[],"categories_nodes":[],"categories_segments":[],"categories_sizes":[],"default_left":[0,0,0,0,0,0,0,0,0,0,0,0,0,0,0,0,0,0,0,0,0,0,0,0,0,0,0,0,0,0,0,0,0,0,0,0,0,0,0,0,0,0,0,0,0,0,0,0,0,0,0,0,0,0,0,0,0],"id":17,"left_children":[1,3,5,-1,7,9,11,-1,-1,13,15,17,19,21,23,25,-1,27,29,31,33,35,37,39,-1,-1,-1,41,43,45,47,49,51,53,55,-1,-1,-1,-1,-1,-1,-1,-1,-1,-1,-1,-1,-1,-1,-1,-1,-1,-1,-1,-1,-1,-1],"loss_changes":[2.4069796E0,1.6979327E0,1.4197537E0,0E0,5.2692795E-1,2.6063867E0,2.5808718E0,0E0,0E0,2.2923088E0,3.129983E0,4.9385967E0,2.9224398E0,2.501855E0,1.781518E0,1.1184051E0,0E0,2.2202117E0,2.9642954E0,3.6790738E0,3.2165096E0,1.4743642E0,6.259465E-2,1.8851637E0,0E0,0E0,0E0,2.2081523E0,8.597745E-1,2.6893091E0,3.3908505E0,3.4539876E0,3.4608457E0,1.1356716E0,2.557461E0,0E0,0E0,0E0,0E0,0E0,0E0,0E0,0E0,0E0,0E0,0E0,0E0,0E0,0E0,0E0,0E0,0E0,0E0,0E0,0E0,0E0,0E0],"parents":[2147483647,0,0,1,1,2,2,4,4,5,5,6,6,9,9,10,10,11,11,12,12,13,13,14,14,15,15,17,17,18,18,19,19,20,20,21,21,22,22,23,23,27,27,28,28,29,29,30,30,31,31,32,32,33,33,34,34],"right_children":[2,4,6,-1,8,10,12,-1,-1,14,16,18,20,22,24,26,-1,28,30,32,34,36,38,40,-1,-1,-1,42,44,46,48,50,52,54,56,-1,-1,-1,-1,-1,-1,-1,-1,-1,-1,-1,-1,-1,-1,-1,-1,-1,-1,-1,-1,-1,-1],"split_conditions":[-5.3685105E-1,2.582614E-1,3.6535057E-1,2.8319117E-1,5.218764E-1,9.62536E-1,4.9524263E-1,-1.1747149E-1,8.710675E-2,4.0069827E-1,1.2229786E0,7.6705396E-1,8.7565506E-1,2.9816633E-1,2.3545851E-1,3.3917794E-1,-2.0489237E-1,6.258725E-1,9.4081575E-1,5.738099E-1,8.767553E-1,3.05444E-1,3.077269E-1,8.6107147E-1,-3.2803753E-1,-1.5307056E-2,3.293496E-1,5.461125E-1,-1.7558369E-1,6.7716193E-1,1.0711371E0,3.8045448E-1,3.2412648E-1,1.3551502E0,9.6331114E-1,-9.0340376E-2,2.5291154E-1,-4.664041E-2,-2.0811793E-1,1.2931533E-1,-1.8962125E-1,-6.627306E-2,1.5047307E-1,-2.6277888E-1,2.554869E-2,5.972764E-1,2.2050485E-2,-2.1014525E-1,2.4275003E-1,-2.2298202E-1,-1.6037532E-3,4.503266E-1,6.5975666E-2,-2.2317491E-1,5.549835E-2,1.1975845E-1,-6.5065E-2],"split_indices":[15,9,5,0,10,12,5,0,0,10,10,12,12,15,5,1,0,12,12,10,10,14,8,2,0,0,0,14,11,9,12,8,1,1,10,0,0,0,0,0,0,0,0,0,0,0,0,0,0,0,0,0,0,0,0,0,0],"split_type":[0,0,0,0,0,0,0,0,0,0,0,0,0,0,0,0,0,0,0,0,0,0,0,0,0,0,0,0,0,0,0,0,0,0,0,0,0,0,0,0,0,0,0,0,0,0,0,0,0,0,0,0,0,0,0,0,0],"sum_hessian":[1.990349E2,6.0898905E0,1.92945E2,3.5347896E0,2.555101E0,2.0742807E1,1.722022E2,1.2264507E0,1.3286501E0,1.6254541E1,4.4882674E0,2.628269E1,1.4591951E2,6.2772794E0,9.977261E0,3.2933452E0,1.1949221E0,1.8633E1,7.64969E0,9.68557E1,4.9063812E1,3.6169086E0,2.660371E0,5.046941E0,4.9303203E0,1.0287606E0,2.2645848E0,1.5230866E1,3.4021342E0,3.2199588E0,4.4297314E0,5.914828E1,3.7707413E1,1.2398869E1,3.6664944E1,1.033018E0,2.5838907E0,1.0253394E0,1.6350316E0,1.9017249E0,3.1452157E0,7.0068264E0,8.22404E0,2.339778E0,1.0623562E0,2.1658127E0,1.0541459E0,1.4494047E0,2.9803267E0,6.208731E0,5.2939552E1,1.2951512E0,3.6412262E1,1.1319335E1,1.0795335E0,7.72203E0,2.8942915E1],"tree_param":{"num_deleted":"0","num_feature":"16","num_nodes":"57","size_leaf_vector":"1"}},{"base_weights":[1.4390064E-3,5.555683E-1,-1.481784E-2,2.7320275E-1,-3.915535E-5,-1.14657454E-1,5.6326583E-2,-9.0939835E-2,9.9934824E-2,-1.6476934E-1,5.11548E-1,-1.6933896E-1,1.2702297E-1,-1.952495E-1,2.9208875E-1,1.1937634E0,-2.2133411E-1,-3.4173882E-1,5.070615E-1,2.2471307E-1,-2.63003E-1,-1.3311413E-1,-8.144031E-1,9.970479E-2,4.0500098E-1,2.3186873E-1,-4.8325226E-1,9.6897274E-1,-1.3035849E-1,1.0287062E0,1.258238E-1,-5.366738E-1,1.0197996E0,-6.2357232E-2,1.1233615E-1,-2.7377978E-1,-5.49456E-2,1.1649039E-1,-1.8798015E-1,3.9131027E-1,2.5743742E-5,4.6528956E-1,-2.932264E-2,9.451403E-3,1.9291167E-1,-2.2682595E-1,-6.451512E-3,1.08434E-1,3.7983078E-1],"categories":[],"categories_nodes":[],"categories_segments":[],"categories_sizes":[],"default_left":[0,0,0,0,0,0,0,0,0,0,0,0,0,0,0,0,0,0,0,0,0,0,0,0,0,0,0,0,0,0,0,0,0,0,0,0,0,0,0,0,0,0,0,0,0,0,0,0,0],"id":18,"left_children":[1,3,5,-1,7,9,11,-1,-1,13,15,17,19,21,-1,23,-1,25,27,29,31,33,35,-1,-1,-1,37,39,-1,41,43,45,47,-1,-1,-1,-1,-1,-1,-1,-1,-1,-1,-1,-1,-1,-1,-1,-1],"loss_changes":[1.7891289E0,1.1168587E0,1.3775742E0,0E0,4.2482418E-1,2.615046E0,1.8304172E0,0E0,0E0,2.8073685E0,6.181474E0,3.377319E0,3.3704538E0,2.7498095E0,0E0,1.4412928E-1,0E0,3.9214377E0,3.0233707E0,5.439165E0,6.8203483E0,2.6846666E0,2.4075651E-1,0E0,0E0,0E0,2.8137612E0,1.404923E0,0E0,4.5825543E0,3.0778656E0,1.7224379E0,1.07737064E-1,0E0,0E0,0E0,0E0,0E0,0E0,0E0,0E0,0E0,0E0,0E0,0E0,0E0,0E0,0E0,0E0],"parents":[2147483647,0,0,1,1,2,2,4,4,5,5,6,6,9,9,10,10,11,11,12,12,13,13,15,15,17,17,18,18,19,19,20,20,21,21,22,22,26,26,27,27,29,29,30,30,31,31,32,32],"right_children":[2,4,6,-1,8,10,12,-1,-1,14,16,18,20,22,-1,24,-1,26,28,30,32,34,36,-1,-1,-1,38,40,-1,42,44,46,48,-1,-1,-1,-1,-1,-1,-1,-1,-1,-1,-1,-1,-1,-1,-1,-1],"split_conditions":[-9.266993E-2,3.3209994E-1,6.4948285E-1,2.7320275E-1,-1.2729226E-1,1.1966598E0,3.210965E-1,-9.0939835E-2,9.9934824E-2,1.2046357E0,5.096017E-1,1.0711371E0,9.719667E-1,9.788642E-1,2.9208875E-1,4.353206E-1,-2.2133411E-1,2.0476423E-1,4.1203234E-1,3.8393158E-1,1.0333686E0,1.2774793E0,6.5621686E-1,9.970479E-2,4.0500098E-1,2.3186873E-1,4.8811186E-2,1.361468E0,-1.3035849E-1,9.3160105E-1,9.813624E-1,7.810052E-1,8.402628E-1,-6.2357232E-2,1.1233615E-1,-2.7377978E-1,-5.49456E-2,1.1649039E-1,-1.8798015E-1,3.9131027E-1,2.5743742E-5,4.6528956E-1,-2.932264E-2,9.451403E-3,1.9291167E-1,-2.2682595E-1,-6.451512E-3,1.08434E-1,3.7983078E-1],"split_indices":[10,2,2,0,10,5,9,0,0,1,9,12,10,1,0,10,0,8,15,9,8,12,9,0,0,0,9,10,0,2,15,5,14,0,0,0,0,0,0,0,0,0,0,0,0,0,0,0,0],"split_type":[0,0,0,0,0,0,0,0,0,0,0,0,0,0,0,0,0,0,0,0,0,0,0,0,0,0,0,0,0,0,0,0,0,0,0,0,0,0,0,0,0,0,0,0,0,0,0,0,0],"sum_hessian":[1.9669301E2,4.6605215E0,1.9203249E2,2.4534042E0,2.2071176E0,7.964795E1,1.12384544E2,1.2028865E0,1.004231E0,7.4428696E1,5.219254E0,2.6476198E1,8.590834E1,7.329474E1,1.1339498E0,3.404596E0,1.8146578E0,2.1492893E1,4.983306E0,6.903975E1,1.6868591E1,6.771425E1,5.580492E0,1.0028191E0,2.401777E0,1.9186839E0,1.957421E1,3.3237216E0,1.6595842E0,6.5318303E0,6.250792E1,1.4382001E1,2.4865909E0,5.953739E1,8.176858E0,4.443562E0,1.1369301E0,2.5233717E0,1.7050837E1,2.211815E0,1.1119065E0,4.2052655E0,2.3265648E0,5.376438E1,8.743537E0,9.758265E0,4.623736E0,1.3488047E0,1.1377861E0],"tree_param":{"num_deleted":"0","num_feature":"16","num_nodes":"49","size_leaf_vector":"1"}},{"base_weights":[6.1809914E-3,-4.1229585E-3,2.0189463E-1,4.925444E-1,-1.7518444E-2,2.6109695E-1,-1.3722358E-2,-4.4330785E-1,-5.763352E-4,-8.493692E-2,8.148652E-2,-2.3127985E-1,-5.389803E-2,-1.9381577E-1,1.1069347E-2,-1.2541723E-1,9.43074E-2,-2.4439394E-1,4.1145723E-2,-1.2679672E-1,9.760516E-2,2.3363285E-2,-6.629945E-2],"categories":[],"categories_nodes":[],"categories_segments":[],"categories_sizes":[],"default_left":[0,0,0,0,0,0,0,0,0,0,0,0,0,0,0,0,0,0,0,0,0,0,0],"id":19,"left_children":[1,3,-1,5,7,-1,9,11,13,-1,-1,-1,15,-1,17,-1,-1,19,21,-1,-1,-1,-1],"loss_changes":[1.3385242E0,1.2890062E0,0E0,9.8515403E-1,1.3585286E0,0E0,3.197365E-1,8.7788236E-1,1.3763978E0,0E0,0E0,0E0,7.171895E-1,0E0,1.3923631E0,0E0,0E0,2.0767798E0,1.5753238E0,0E0,0E0,0E0,0E0],"parents":[2147483647,0,0,1,1,3,3,4,4,6,6,7,7,8,8,12,12,14,14,17,17,18,18],"right_children":[2,4,-1,6,8,-1,10,12,14,-1,-1,-1,16,-1,18,-1,-1,20,22,-1,-1,-1,-1],"split_conditions":[2.3992856E0,-9.266993E-2,2.0189463E-1,3.3209994E-1,2.9683515E-1,2.6109695E-1,-1.2729226E-1,6.34399E-1,-2.103563E-1,-8.493692E-2,8.148652E-2,-2.3127985E-1,6.5307623E-1,-1.9381577E-1,3.6535057E-1,-1.2541723E-1,9.43074E-2,9.62536E-1,9.9133724E-1,-1.2679672E-1,9.760516E-2,2.3363285E-2,-6.629945E-2],"split_indices":[0,10,0,2,2,0,10,10,12,0,0,0,14,0,5,0,0,12,9,0,0,0,0],"split_type":[0,0,0,0,0,0,0,0,0,0,0,0,0,0,0,0,0,0,0,0,0,0,0],"sum_hessian":[1.9341287E2,1.9144827E2,1.964597E0,4.0885034E0,1.8735977E2,1.9295576E0,2.1589456E0,6.206705E0,1.8115306E2,1.1145006E0,1.044445E0,2.8386753E0,3.3680298E0,2.2450085E0,1.7890805E2,1.6254381E0,1.7425917E0,1.8094116E1,1.6081393E2,1.39786415E1,4.115474E0,1.416664E2,1.9147533E1],"tree_param":{"num_deleted":"0","num_feature":"16","num_nodes":"23","size_leaf_vector":"1"}},{"base_weights":[3.3692599E-3,-2.6473742E-2,2.0995694E-1,-4.0045893E-3,-7.60718E-1,-2.827423E-1,3.2438368E-1,5.3258438E-2,-2.3632224E-1,-2.7780962E-1,-2.2633726E-2,-2.1556912E-1,7.794519E-2,-3.8763916E-1,4.6402442E-1,5.1679534E-1,2.634692E-2,-3.5028663E-1,3.5331908E-1,-2.3570392E-1,1.0355482E-1,6.5048486E-1,-2.129497E-1,8.0209005E-1,-7.43874E-2,-3.458657E-3,4.4764015E-1,-4.994914E-1,3.1197268E-1,7.8522563E-1,-1.8967673E-1,2.0935868E-1,1.074719E0,-2.0122923E-1,1.14637576E-1,5.344649E-2,3.187366E-1,3.0399432E-2,-4.2327285E-2,-1.7999521E-1,3.1452402E-1,-2.0058988E-1,5.16108E-2,-4.387108E-2,3.517866E-1,-2.9837133E-2,5.786213E-1,2.3179822E-1,-1.0341631E-1,1.4213699E-2,3.804898E-1],"categories":[],"categories_nodes":[],"categories_segments":[],"categories_sizes":[],"default_left":[0,0,0,0,0,0,0,0,0,0,0,0,0,0,0,0,0,0,0,0,0,0,0,0,0,0,0,0,0,0,0,0,0,0,0,0,0,0,0,0,0,0,0,0,0,0,0,0,0,0,0],"id":20,"left_children":[1,3,5,7,9,11,13,15,17,-1,-1,-1,-1,19,21,23,25,27,29,-1,-1,31,33,35,-1,37,39,41,43,45,-1,47,49,-1,-1,-1,-1,-1,-1,-1,-1,-1,-1,-1,-1,-1,-1,-1,-1,-1,-1],"loss_changes":[1.1964263E0,2.7960863E0,1.4725928E0,2.2160497E0,5.00257E-1,1.4046E0,2.2024853E0,1.6541823E0,2.337076E0,0E0,0E0,0E0,0E0,1.4030482E0,2.3427703E0,1.7877569E0,1.6014766E0,2.932887E0,2.9793212E0,0E0,0E0,2.3833542E0,1.4889139E0,7.106855E-1,0E0,1.7448248E0,5.9324503E0,2.7639318E0,2.4521027E0,4.7457933E0,0E0,2.7866318E0,1.3047872E0,0E0,0E0,0E0,0E0,0E0,0E0,0E0,0E0,0E0,0E0,0E0,0E0,0E0,0E0,0E0,0E0,0E0,0E0],"parents":[2147483647,0,0,1,1,2,2,3,3,4,4,5,5,6,6,7,7,8,8,13,13,14,14,15,15,16,16,17,17,18,18,21,21,22,22,23,23,25,25,26,26,27,27,28,28,29,29,31,31,32,32],"right_children":[2,4,6,8,10,12,14,16,18,-1,-1,-1,-1,20,22,24,26,28,30,-1,-1,32,34,36,-1,38,40,42,44,46,-1,48,50,-1,-1,-1,-1,-1,-1,-1,-1,-1,-1,-1,-1,-1,-1,-1,-1,-1,-1],"split_conditions":[1.1079249E0,1.0726601E0,4.1240776E-1,8.29541E-1,7.1567506E-1,4.8794302E-1,2.4317093E-1,4.8811186E-2,9.3160105E-1,-2.7780962E-1,-2.2633726E-2,-2.1556912E-1,7.794519E-2,8.3587545E-1,8.732044E-1,7.4533373E-1,7.5363034E-1,9.50835E-1,7.293835E-1,-2.3570392E-1,1.0355482E-1,6.027231E-1,7.2095484E-1,-7.8341615E-1,-7.43874E-2,2.9816633E-1,6.641023E-1,1.6266031E0,-4.5013136E-1,5.299955E-1,-1.8967673E-1,4.4664478E-1,7.0434324E-2,-2.0122923E-1,1.14637576E-1,5.344649E-2,3.187366E-1,3.0399432E-2,-4.2327285E-2,-1.7999521E-1,3.1452402E-1,-2.0058988E-1,5.16108E-2,-4.387108E-2,3.517866E-1,-2.9837133E-2,5.786213E-1,2.3179822E-1,-1.0341631E-1,1.4213699E-2,3.804898E-1],"split_indices":[2,2,14,15,15,15,8,9,2,0,0,0,0,1,8,12,15,8,8,0,0,8,10,3,0,15,5,15,11,8,0,8,15,0,0,0,0,0,0,0,0,0,0,0,0,0,0,0,0,0,0],"split_type":[0,0,0,0,0,0,0,0,0,0,0,0,0,0,0,0,0,0,0,0,0,0,0,0,0,0,0,0,0,0,0,0,0,0,0,0,0,0,0,0,0,0,0,0,0,0,0,0,0,0,0],"sum_hessian":[1.9215976E2,1.6866656E2,2.3493185E1,1.6463394E2,4.0326314E0,4.1505933E0,1.9342592E1,1.326968E2,3.193714E1,2.9658256E0,1.0668057E0,2.1218114E0,2.028782E0,2.8802636E0,1.6462328E1,6.28239E0,1.26414406E2,2.7104403E1,4.8327374E0,1.8197283E0,1.0605353E0,1.2937935E1,3.524394E0,4.539928E0,1.7424624E0,1.1898805E2,7.426355E0,2.2321272E1,4.78313E0,3.5015442E0,1.3311933E0,7.0748634E0,5.8630714E0,1.9200397E0,1.6043543E0,1.8325896E0,2.7073383E0,6.770373E1,5.128433E1,2.7070808E0,4.719274E0,1.7833704E1,4.4875684E0,3.6630225E0,1.1201077E0,2.4889686E0,1.0125755E0,3.3126166E0,3.7622466E0,1.1269648E0,4.7361064E0],"tree_param":{"num_deleted":"0","num_feature":"16","num_nodes":"51","size_leaf_vector":"1"}},{"base_weights":[2.609713E-3,-6.0765096E-3,1.8789925E-1,5.771905E-3,-4.8375046E-1,-1.4678996E-2,5.426648E-1,-2.405107E-1,-6.7586233E-3,-2.9579064E-2,4.106488E-1,3.8115326E-1,-1.1206296E-1,5.302651E-3,-4.1892344E-1,7.390773E-1,-1.7375757E-1,1.1527277E-1,-2.1155615E-1,5.704617E-3,-2.447747E-1,-1.6207355E-1,1.5855794E-1,2.7356213E-1,8.0194905E-2,-3.282693E-3,-7.4900776E-2],"categories":[],"categories_nodes":[],"categories_segments":[],"categories_sizes":[],"default_left":[0,0,0,0,0,0,0,0,0,0,0,0,0,0,0,0,0,0,0,0,0,0,0,0,0,0,0],"id":21,"left_children":[1,3,-1,5,7,9,11,-1,-1,13,15,-1,17,19,21,23,25,-1,-1,-1,-1,-1,-1,-1,-1,-1,-1],"loss_changes":[1.03311E0,1.06889E0,0E0,2.037017E0,6.522641E-1,1.1464738E0,3.3862672E0,0E0,0E0,2.363464E0,1.304084E0,0E0,1.5963749E0,1.8235536E0,1.9302227E0,9.1431856E-2,3.4513265E-2,0E0,0E0,0E0,0E0,0E0,0E0,0E0,0E0,0E0,0E0],"parents":[2147483647,0,0,1,1,3,3,4,4,5,5,6,6,9,9,10,10,12,12,13,13,14,14,15,15,16,16],"right_children":[2,4,-1,6,8,10,12,-1,-1,14,16,-1,18,20,22,24,26,-1,-1,-1,-1,-1,-1,-1,-1,-1,-1],"split_conditions":[2.3992856E0,1.5131903E0,1.8789925E-1,1.3099959E0,2.5585382E0,1.3626857E0,1.4003046E0,-2.405107E-1,-6.7586233E-3,1.0725924E0,1.5195812E0,3.8115326E-1,4.1203234E-1,1.2347387E0,1.1966598E0,8.161662E-1,5.997767E-1,1.1527277E-1,-2.1155615E-1,5.704617E-3,-2.447747E-1,-1.6207355E-1,1.5855794E-1,2.7356213E-1,8.0194905E-2,-3.282693E-3,-7.4900776E-2],"split_indices":[0,1,0,1,7,8,1,0,0,8,8,0,15,1,5,10,10,0,0,0,0,0,0,0,0,0,0],"split_type":[0,0,0,0,0,0,0,0,0,0,0,0,0,0,0,0,0,0,0,0,0,0,0,0,0,0,0],"sum_hessian":[1.889863E2,1.8736719E2,1.6191028E0,1.8379616E2,3.5710363E0,1.77989E2,5.8071575E0,1.6768521E0,1.8941842E0,1.728637E2,5.1252985E0,2.3046322E0,3.502525E0,1.5955537E2,1.3308329E1,3.111829E0,2.0134697E0,2.098634E0,1.4038913E0,1.5789566E2,1.659704E0,1.2178635E1,1.1296939E0,1.5947794E0,1.5170498E0,1.0040753E0,1.0093943E0],"tree_param":{"num_deleted":"0","num_feature":"16","num_nodes":"27","size_leaf_vector":"1"}},{"base_weights":[2.1686484E-3,1.6753855E-1,-2.3937533E-2,-2.1088839E-2,7.878327E-1,-4.9033266E-1,-3.1091832E-3,-2.3646446E-1,4.0605968E-1,-2.6730523E-2,1.0275933E0,9.8415084E-2,-8.2686675E-1,-6.2502384E-2,1.2849967E-1,1.2303394E-1,-7.2733915E-1,-1.4301425E-1,6.858572E-1,3.921562E-1,2.8618624E-2,-2.808476E-1,-6.0694337E-2,-2.1769088E-2,-6.087535E-1,2.1680284E-1,-5.872764E-1,6.244696E-1,-1.9915038E-1,-2.9517934E-1,2.645844E-2,-2.1927293E-2,1.0237534E0,-3.3155128E-1,6.0512856E-2,1.0432111E-2,-7.829134E-1,3.5359946E-3,5.7080245E-1,-2.8137198E-1,4.0803924E-2,2.3210616E-1,5.979817E-2,-2.5531533E-1,1.5573512E-1,4.1951746E-1,9.683508E-3,9.424148E-3,-1.8474095E-1,8.507969E-2,-2.6636457E-2,-2.6241434E-1,-5.861366E-2,1.8181245E-1,-6.582291E-2,3.318997E-1,1.2345026E-2],"categories":[],"categories_nodes":[],"categories_segments":[],"categories_sizes":[],"default_left":[0,0,0,0,0,0,0,0,0,0,0,0,0,0,0,0,0,0,0,0,0,0,0,0,0,0,0,0,0,0,0,0,0,0,0,0,0,0,0,0,0,0,0,0,0,0,0,0,0,0,0,0,0,0,0,0,0],"id":22,"left_children":[1,3,5,7,9,11,13,15,17,-1,19,-1,21,23,25,27,29,-1,31,-1,-1,-1,-1,33,35,37,39,41,43,-1,-1,-1,45,47,49,-1,51,53,55,-1,-1,-1,-1,-1,-1,-1,-1,-1,-1,-1,-1,-1,-1,-1,-1,-1,-1],"loss_changes":[8.1998974E-1,3.046403E0,1.5927083E0,2.0123572E0,1.3666015E0,2.20171E0,1.243876E0,2.6447446E0,2.1424935E0,0E0,1.1373138E0,0E0,1.6901922E-1,2.425708E0,3.2553842E0,1.6128985E0,1.3980255E0,0E0,1.6113038E0,0E0,0E0,0E0,0E0,2.646595E0,8.75581E-1,3.3791516E0,1.5743009E0,8.977258E-2,3.4234235E0,0E0,0E0,0E0,1.5195098E0,2.2664628E0,2.7651381E0,0E0,1.5270281E-1,4.022329E0,4.728569E0,0E0,0E0,0E0,0E0,0E0,0E0,0E0,0E0,0E0,0E0,0E0,0E0,0E0,0E0,0E0,0E0,0E0,0E0],"parents":[2147483647,0,0,1,1,2,2,3,3,4,4,5,5,6,6,7,7,8,8,10,10,12,12,13,13,14,14,15,15,16,16,18,18,23,23,24,24,25,25,26,26,27,27,28,28,32,32,33,33,34,34,36,36,37,37,38,38],"right_children":[2,4,6,8,10,12,14,16,18,-1,20,-1,22,24,26,28,30,-1,32,-1,-1,-1,-1,34,36,38,40,42,44,-1,-1,-1,46,48,50,-1,52,54,56,-1,-1,-1,-1,-1,-1,-1,-1,-1,-1,-1,-1,-1,-1,-1,-1,-1,-1],"split_conditions":[3.05444E-1,2.5585382E0,3.3218494E-1,2.2522119E-1,2.3490837E-1,3.326494E-1,2.1968745E-1,4.886567E-1,3.0015147E-1,-2.6730523E-2,5.638537E-1,9.8415084E-2,6.1432683E-1,1.4368263E0,1.079757E0,3.3145362E-1,9.6686584E-1,-1.4301425E-1,4.4125053E-1,3.921562E-1,2.8618624E-2,-2.808476E-1,-6.0694337E-2,3.5742036E-1,3.6737987E-1,6.7626786E-1,8.104944E-1,4.0823808E-1,6.949881E-1,-2.9517934E-1,2.645844E-2,-2.1927293E-2,8.539348E-1,6.190664E-1,6.8017304E-1,1.0432111E-2,1.1018004E0,1.4055009E0,8.478723E-1,-2.8137198E-1,4.0803924E-2,2.3210616E-1,5.979817E-2,-2.5531533E-1,1.5573512E-1,4.1951746E-1,9.683508E-3,9.424148E-3,-1.8474095E-1,8.507969E-2,-2.6636457E-2,-2.6241434E-1,-5.861366E-2,1.8181245E-1,-6.582291E-2,3.318997E-1,1.2345026E-2],"split_indices":[14,7,14,14,12,12,11,9,9,0,15,0,9,15,5,10,2,0,12,0,0,0,0,10,8,8,12,8,10,0,0,0,12,8,12,0,10,11,8,0,0,0,0,0,0,0,0,0,0,0,0,0,0,0,0,0,0],"split_type":[0,0,0,0,0,0,0,0,0,0,0,0,0,0,0,0,0,0,0,0,0,0,0,0,0,0,0,0,0,0,0,0,0,0,0,0,0,0,0,0,0,0,0,0,0,0,0,0,0,0,0,0,0,0,0,0,0],"sum_hessian":[1.8800761E2,2.489464E1,1.6311298E2,1.9830359E1,5.064281E0,6.009295E0,1.5710368E2,1.3479949E1,6.35041E0,1.2222441E0,3.842037E0,1.758409E0,4.250886E0,1.0861319E2,4.849049E1,8.213815E0,5.2661347E0,1.3589809E0,4.9914293E0,2.646122E0,1.1959149E0,3.1931765E0,1.0577096E0,1.02043755E2,6.569429E0,4.3785866E1,4.704624E0,2.8460662E0,5.3677483E0,3.848722E0,1.4174128E0,1.7790949E0,3.2123344E0,2.0779991E1,8.126376E1,1.5696921E0,4.999737E0,2.7954615E1,1.5831252E1,2.9687397E0,1.7358845E0,1.4998233E0,1.3462428E0,2.716962E0,2.6507862E0,2.0335305E0,1.1788039E0,9.517039E0,1.1262952E1,3.2220413E1,4.9043354E1,3.9013684E0,1.0983685E0,7.086142E0,2.0868473E1,7.3305583E0,8.500694E0],"tree_param":{"num_deleted":"0","num_feature":"16","num_nodes":"57","size_leaf_vector":"1"}},{"base_weights":[-2.4845384E-3,1.8792868E-1,-2.7720025E-2,5.909735E-1,-1.9799829E-1,-4.6949482E-1,9.975867E-3,1.0546835E-1,4.0549374E-1,-4.3687358E-1,2.514546E-1,-6.1192E-1,7.467644E-2,6.584579E-1,-6.756566E-3,2.749002E-1,-3.947336E-1,-7.0486087E-3,-2.8126487E-1,-7.7172685E-1,3.236402E-2,-1.1802798E-1,3.6877024E-1,-1.4366858E-1,8.415377E-2,-2.3088431E-1,6.172132E-2,-6.433074E-1,6.327209E-1,-3.9413977E-2,-9.3269897E-1,-4.1624215E-2,-4.719426E-1,-2.074821E-1,2.0262377E-1,-1.418104E-1,1.7543119E-1,-2.491956E-2,-2.4577682E-1,-7.850741E-3,2.853958E-1,-3.0273408E-1,-6.907706E-2,1.5284755E-2,-1.8694994E-1,-1.859401E-1,1.5931115E-1,6.189252E-2,-1.361309E-1,1.3628496E-1,-9.820883E-3],"categories":[],"categories_nodes":[],"categories_segments":[],"categories_sizes":[],"default_left":[0,0,0,0,0,0,0,0,0,0,0,0,0,0,0,0,0,0,0,0,0,0,0,0,0,0,0,0,0,0,0,0,0,0,0,0,0,0,0,0,0,0,0,0,0,0,0,0,0,0,0],"id":23,"left_children":[1,3,5,7,9,11,13,15,-1,17,-1,19,-1,21,23,-1,25,27,-1,29,-1,-1,-1,31,33,-1,35,37,39,-1,41,43,45,47,49,-1,-1,-1,-1,-1,-1,-1,-1,-1,-1,-1,-1,-1,-1,-1,-1],"loss_changes":[9.0392554E-1,3.541379E0,2.7693627E0,3.9271374E0,3.3352678E0,1.4899509E0,1.6748352E0,3.529869E0,0E0,2.2326927E0,0E0,1.3714871E0,0E0,2.8145423E0,1.8922992E0,0E0,9.9376047E-1,3.0962665E0,0E0,8.347659E-1,0E0,0E0,0E0,2.0119963E0,3.2003324E0,0E0,1.2322465E0,3.0733562E-1,8.2224035E-1,0E0,1.5720797E-1,2.5815732E0,2.447625E0,2.8351204E0,3.8951309E0,0E0,0E0,0E0,0E0,0E0,0E0,0E0,0E0,0E0,0E0,0E0,0E0,0E0,0E0,0E0,0E0],"parents":[2147483647,0,0,1,1,2,2,3,3,4,4,5,5,6,6,7,7,9,9,11,11,13,13,14,14,16,16,17,17,19,19,23,23,24,24,26,26,27,27,28,28,30,30,31,31,32,32,33,33,34,34],"right_children":[2,4,6,8,10,12,14,16,-1,18,-1,20,-1,22,24,-1,26,28,-1,30,-1,-1,-1,32,34,-1,36,38,40,-1,42,44,46,48,50,-1,-1,-1,-1,-1,-1,-1,-1,-1,-1,-1,-1,-1,-1,-1,-1],"split_conditions":[2.1893103E-1,5.9945446E-1,3.22798E-1,7.0793825E-1,1.9984076E0,9.261841E-1,3.9426327E-2,3.5892588E-1,4.0549374E-1,6.2633526E-1,2.514546E-1,1.1079249E0,7.467644E-2,-3.659447E-2,5.9209996E-1,2.749002E-1,5.0286442E-2,7.178614E-2,-2.8126487E-1,3.6928082E-1,3.236402E-2,-1.1802798E-1,3.6877024E-1,5.136522E-1,5.4368854E-1,-2.3088431E-1,3.247899E-2,-5.8314696E-2,3.05444E-1,-3.9413977E-2,9.0589094E-1,1.1450783E0,1.1883563E0,3.673647E-1,7.7791405E-1,-1.418104E-1,1.7543119E-1,-2.491956E-2,-2.4577682E-1,-7.850741E-3,2.853958E-1,-3.0273408E-1,-6.907706E-2,1.5284755E-2,-1.8694994E-1,-1.859401E-1,1.5931115E-1,6.189252E-2,-1.361309E-1,1.3628496E-1,-9.820883E-3],"split_indices":[10,8,10,1,11,1,12,14,0,14,0,2,0,12,8,0,12,10,0,1,0,0,0,8,2,0,15,12,14,0,8,10,10,2,12,0,0,0,0,0,0,0,0,0,0,0,0,0,0,0,0],"split_type":[0,0,0,0,0,0,0,0,0,0,0,0,0,0,0,0,0,0,0,0,0,0,0,0,0,0,0,0,0,0,0,0,0,0,0,0,0,0,0,0,0,0,0,0,0,0,0,0,0,0,0],"sum_hessian":[1.8603108E2,2.101516E1,1.6501593E2,1.0019712E1,1.0995448E1,1.2072946E1,1.5294298E2,6.8111153E0,3.2085972E0,9.405529E0,1.5899184E0,1.01992035E1,1.8737421E0,2.882353E0,1.5006062E2,2.2811952E0,4.5299196E0,5.606493E0,3.7990363E0,8.287179E0,1.9120243E0,1.1231729E0,1.7591801E0,5.9648685E1,9.041194E1,2.110513E0,2.419407E0,2.8081863E0,2.7983065E0,2.0295994E0,6.25758E0,4.6363373E1,1.3285313E1,2.5900848E1,6.451109E1,1.2443044E0,1.1751024E0,1.0229824E0,1.785204E0,1.2112318E0,1.5870748E0,5.2498956E0,1.0076841E0,4.0783585E1,5.5797873E0,1.1911394E1,1.3739184E0,9.724661E0,1.6176188E1,3.0726515E1,3.378458E1],"tree_param":{"num_deleted":"0","num_feature":"16","num_nodes":"51","size_leaf_vector":"1"}},{"base_weights":[-4.945624E-3,-1.2650296E-2,1.7646243E-1,-1.3644825E-1,2.278448E-2,1.763543E-2,-6.1114883E-1,3.7341136E-1,-3.042952E-2,-7.84334E-2,7.255821E-1,1.7054752E-2,-7.2367567E-1,-3.7229875E-1,6.8818235E-1,-3.7951288E-1,2.4386598E-2,3.5568452E-1,-2.461336E-1,3.1393696E-2,3.0204007E-1,-2.8042385E-1,-1.7926316E-1,1.495014E-1,-7.4505335E-1,8.455298E-1,-6.0177468E-2,1.9794519E-1,-7.79932E-1,5.481413E-1,-1.0377961E-3,-3.8919024E-2,2.2969957E-1,-2.083863E-2,-2.6595667E-1,-2.0080659E-1,1.2700354E-1,-4.8926618E-2,-2.630369E-1,1.093252E-1,3.644513E-1,-7.742486E-2,2.6428118E-1,-2.9469696E-1,7.5396374E-2,2.9078734E-1,-1.7068093E-1,-2.001239E-2,6.376005E-2],"categories":[],"categories_nodes":[],"categories_segments":[],"categories_sizes":[],"default_left":[0,0,0,0,0,0,0,0,0,0,0,0,0,0,0,0,0,0,0,0,0,0,0,0,0,0,0,0,0,0,0,0,0,0,0,0,0,0,0,0,0,0,0,0,0,0,0,0,0],"id":24,"left_children":[1,3,-1,5,7,9,11,13,15,17,19,-1,21,23,25,27,29,31,33,-1,-1,-1,35,-1,37,39,-1,41,43,45,47,-1,-1,-1,-1,-1,-1,-1,-1,-1,-1,-1,-1,-1,-1,-1,-1,-1,-1],"loss_changes":[8.512976E-1,8.07027E-1,0E0,3.0041687E0,2.685754E0,2.2243145E0,7.9707885E-1,4.7072687E0,2.408315E0,2.1960855E0,5.76591E-1,0E0,8.2980967E-1,2.4085193E0,2.0834336E0,4.1027026E0,1.4559871E0,1.7868681E0,2.3689907E0,0E0,0E0,0E0,1.3649535E0,0E0,2.2471786E-1,1.6572008E0,0E0,2.6535544E0,2.3937302E0,2.9328418E0,1.4901319E0,0E0,0E0,0E0,0E0,0E0,0E0,0E0,0E0,0E0,0E0,0E0,0E0,0E0,0E0,0E0,0E0,0E0,0E0],"parents":[2147483647,0,0,1,1,3,3,4,4,5,5,6,6,7,7,8,8,9,9,10,10,12,12,13,13,14,14,15,15,16,16,17,17,18,18,22,22,24,24,25,25,27,27,28,28,29,29,30,30],"right_children":[2,4,-1,6,8,10,12,14,16,18,20,-1,22,24,26,28,30,32,34,-1,-1,-1,36,-1,38,40,-1,42,44,46,48,-1,-1,-1,-1,-1,-1,-1,-1,-1,-1,-1,-1,-1,-1,-1,-1,-1,-1],"split_conditions":[2.3992856E0,4.8216662E-1,1.7646243E-1,8.6479497E-1,5.423724E-1,7.6705396E-1,2.7442613E-1,5.1322085E-1,6.176296E-1,3.247899E-2,9.650746E-1,1.7054752E-2,8.6700374E-1,4.0262946E-1,7.1605915E-1,-7.8341615E-1,6.251553E-1,-7.8341615E-1,8.258089E-1,3.1393696E-2,3.0204007E-1,-2.8042385E-1,6.142181E-1,1.495014E-1,5.553276E-1,-7.8341615E-1,-6.0177468E-2,8.248218E-1,1.0014992E0,6.777197E-1,8.237771E-1,-3.8919024E-2,2.2969957E-1,-2.083863E-2,-2.6595667E-1,-2.0080659E-1,1.2700354E-1,-4.8926618E-2,-2.630369E-1,1.093252E-1,3.644513E-1,-7.742486E-2,2.6428118E-1,-2.9469696E-1,7.5396374E-2,2.9078734E-1,-1.7068093E-1,-2.001239E-2,6.376005E-2],"split_indices":[0,1,0,12,1,12,5,10,1,15,4,0,14,2,5,3,1,3,8,0,0,0,2,0,8,3,0,10,8,15,9,0,0,0,0,0,0,0,0,0,0,0,0,0,0,0,0,0,0],"split_type":[0,0,0,0,0,0,0,0,0,0,0,0,0,0,0,0,0,0,0,0,0,0,0,0,0,0,0,0,0,0,0,0,0,0,0,0,0,0,0,0,0,0,0,0,0,0,0,0,0],"sum_hessian":[1.8364914E2,1.8226038E2,1.3887681E0,3.9924843E1,1.4233553E2,3.0868158E1,9.056687E0,1.7962635E1,1.243729E2,2.7962797E1,2.9053602E0,1.3770201E0,7.679667E0,5.2774053E0,1.2685229E1,1.607564E1,1.0829726E2,7.479639E0,2.0483158E1,1.3333673E0,1.5719928E0,5.0174174E0,2.6622496E0,1.4811056E0,3.7962997E0,1.0818578E1,1.8666517E0,6.7896748E0,9.285966E0,4.061836E0,1.0423542E2,3.7377439E0,3.7418952E0,1.6922907E1,3.5602515E0,1.4071072E0,1.2551423E0,1.1138215E0,2.6824782E0,5.5609093E0,5.257668E0,4.444349E0,2.3453257E0,7.8021774E0,1.4837884E0,3.0458255E0,1.0160102E0,8.0247955E1,2.3987463E1],"tree_param":{"num_deleted":"0","num_feature":"16","num_nodes":"49","size_leaf_vector":"1"}},{"base_weights":[-5.119617E-3,-3.4244475E-1,8.626743E-3,1.0640997E-1,-6.369015E-1,-3.21356E-1,2.4403915E-2,-2.4202241E-1,1.4458653E-2,2.1205759E-2,-2.0996524E-1,3.0311215E-1,1.0261603E-3,-4.6402815E-1,1.7545542E-1,-2.9409078E-1,6.386987E-1,1.2343593E-1,-5.3413346E-2,-1.85874E-1,-1.7579528E-2,-6.561533E-1,1.6844325E-1,9.502427E-1,1.3293022E-1,-2.1985132E-1,3.0014265E-1,-4.2897108E-1,-1.0030546E-2,-2.2979526E-1,-4.8081618E-2,3.8608238E-1,-7.1198815E-3,-8.816732E-2,1.9499953E-1,1.6670468E-1,-1.0808567E-1,1.6880822E-1,-1.680933E-2,1.930499E-1,-1.8189013E-1,1.2570658E-1,-1.7719569E-2],"categories":[],"categories_nodes":[],"categories_segments":[],"categories_sizes":[],"default_left":[0,0,0,0,0,0,0,0,0,0,0,0,0,0,0,0,0,0,0,0,0,0,0,0,0,0,0,0,0,0,0,0,0,0,0,0,0,0,0,0,0,0,0],"id":25,"left_children":[1,3,5,-1,7,9,11,-1,-1,13,-1,15,17,19,-1,21,23,25,27,-1,-1,29,-1,31,33,35,37,39,41,-1,-1,-1,-1,-1,-1,-1,-1,-1,-1,-1,-1,-1,-1],"loss_changes":[8.4521157E-1,1.6909263E0,9.215398E-1,0E0,6.6431856E-1,1.0624149E0,1.0970623E0,0E0,0E0,1.6967254E0,0E0,2.7993193E0,1.0487827E0,1.754753E-1,0E0,2.0326986E0,1.2378917E0,3.0046797E0,1.7707644E0,0E0,0E0,1.0795152E-1,0E0,1.734168E0,1.1759597E0,2.0560334E0,3.0618083E0,2.5312147E0,2.10104E0,0E0,0E0,0E0,0E0,0E0,0E0,0E0,0E0,0E0,0E0,0E0,0E0,0E0,0E0],"parents":[2147483647,0,0,1,1,2,2,4,4,5,5,6,6,9,9,11,11,12,12,13,13,15,15,16,16,17,17,18,18,21,21,23,23,24,24,25,25,26,26,27,27,28,28],"right_children":[2,4,6,-1,8,10,12,-1,-1,14,-1,16,18,20,-1,22,24,26,28,-1,-1,30,-1,32,34,36,38,40,42,-1,-1,-1,-1,-1,-1,-1,-1,-1,-1,-1,-1,-1,-1],"split_conditions":[2.9683515E-1,2.6392072E-1,2.56395E-1,1.0640997E-1,1.4621012E0,2.0371497E-1,3.673647E-1,-2.4202241E-1,1.4458653E-2,3.6535057E-1,-2.0996524E-1,6.0415226E-1,5.6018865E-1,1.3598348E-1,1.7545542E-1,9.50835E-1,7.890365E-1,4.048766E-1,3.6574554E-1,-1.85874E-1,-1.7579528E-2,4.4125053E-1,1.6844325E-1,6.4020675E-1,8.402628E-1,-8.138702E-2,8.6107147E-1,6.975621E-2,4.3847314E-1,-2.2979526E-1,-4.8081618E-2,3.8608238E-1,-7.1198815E-3,-8.816732E-2,1.9499953E-1,1.6670468E-1,-1.0808567E-1,1.6880822E-1,-1.680933E-2,1.930499E-1,-1.8189013E-1,1.2570658E-1,-1.7719569E-2],"split_indices":[2,1,1,0,12,1,2,0,0,5,0,12,5,1,0,8,8,9,8,0,0,12,0,1,14,15,2,9,8,0,0,0,0,0,0,0,0,0,0,0,0,0,0],"split_type":[0,0,0,0,0,0,0,0,0,0,0,0,0,0,0,0,0,0,0,0,0,0,0,0,0,0,0,0,0,0,0,0,0,0,0,0,0,0,0,0,0,0,0],"sum_hessian":[1.806387E2,6.136717E0,1.74502E2,1.761549E0,4.375168E0,7.0788107E0,1.6742319E2,3.363722E0,1.0114458E0,4.2114735E0,2.8673368E0,1.2030493E1,1.5539268E2,2.3581316E0,1.8533419E0,4.3726554E0,7.6578374E0,4.7444386E1,1.079483E2,1.3225148E0,1.035617E0,3.2362194E0,1.1364361E0,4.194991E0,3.4628465E0,1.6039795E1,3.1404589E1,1.0258046E1,9.769026E1,2.203485E0,1.0327344E0,2.8785596E0,1.3164313E0,2.133412E0,1.3294348E0,2.0058439E0,1.4033952E1,1.7744501E1,1.3660088E1,1.0824788E0,9.175568E0,9.245644E0,8.844462E1],"tree_param":{"num_deleted":"0","num_feature":"16","num_nodes":"43","size_leaf_vector":"1"}},{"base_weights":[-4.959977E-3,-3.7033066E-2,1.4941263E-1,-2.0895073E-2,-2.189547E-1,3.3900002E-1,-2.576697E-1,-3.7922446E-2,2.9390627E-1,7.4306175E-2,6.967628E-1,-5.613724E-1,2.27302E-1,-1.5108238E-2,-5.3493136E-1,3.1886923E-1,-5.409948E-1,9.799114E-1,-1.2611927E-1,3.9237026E-2,-8.0215925E-1,-1.0576547E-1,6.4474607E-1,-3.048561E-2,6.5738106E-1,-2.7388892E-1,2.934901E-2,5.2302474E-1,-1.14497356E-1,-1.3659197E-2,-2.4945264E-1,4.1812196E-1,1.3103286E0,-2.0418918E-1,1.4845455E-1,-2.7967817E-1,-4.3637257E-2,5.972458E-2,2.3387568E-1,-1.8949801E-2,8.496909E-2,3.125932E-1,-6.1977124E-3,1.7013367E-1,-1.22568116E-1,-1.1484131E-1,2.1949618E-1,2.821815E-1,-5.1628273E-2,4.471955E-1,1.24736145E-1],"categories":[],"categories_nodes":[],"categories_segments":[],"categories_sizes":[],"default_left":[0,0,0,0,0,0,0,0,0,0,0,0,0,0,0,0,0,0,0,0,0,0,0,0,0,0,0,0,0,0,0,0,0,0,0,0,0,0,0,0,0,0,0,0,0,0,0,0,0,0,0],"id":26,"left_children":[1,3,5,7,-1,9,11,13,-1,15,17,19,21,23,25,27,29,31,33,-1,35,-1,37,39,41,-1,43,45,-1,-1,-1,47,49,-1,-1,-1,-1,-1,-1,-1,-1,-1,-1,-1,-1,-1,-1,-1,-1,-1,-1],"loss_changes":[8.971881E-1,1.6608456E0,2.493604E0,2.5506186E0,0E0,2.0034804E0,1.6704001E0,1.6476365E0,0E0,2.2180667E0,2.2461424E0,1.2264528E0,1.3759644E0,1.4744356E0,1.387662E0,1.6807584E0,5.720302E-1,7.313862E-1,1.4449126E0,0E0,3.0292606E-1,0E0,3.1844974E-2,1.437366E0,8.529688E-1,0E0,1.0625571E0,1.8753228E0,0E0,0E0,0E0,1.4018216E0,4.588127E-3,0E0,0E0,0E0,0E0,0E0,0E0,0E0,0E0,0E0,0E0,0E0,0E0,0E0,0E0,0E0,0E0,0E0,0E0],"parents":[2147483647,0,0,1,1,2,2,3,3,5,5,6,6,7,7,9,9,10,10,11,11,12,12,13,13,14,14,15,15,16,16,17,17,18,18,20,20,22,22,23,23,24,24,26,26,27,27,31,31,32,32],"right_children":[2,4,6,8,-1,10,12,14,-1,16,18,20,22,24,26,28,30,32,34,-1,36,-1,38,40,42,-1,44,46,-1,-1,-1,48,50,-1,-1,-1,-1,-1,-1,-1,-1,-1,-1,-1,-1,-1,-1,-1,-1,-1,-1],"split_conditions":[9.628541E-1,1.4003046E0,8.9374465E-1,1.3099959E0,-2.189547E-1,6.949881E-1,7.5363034E-1,1.1068014E0,2.9390627E-1,5.997767E-1,1.2991995E0,3.0015147E-1,8.075106E-1,1.0691729E0,8.402628E-1,1.4055009E0,7.561938E-1,8.9406645E-1,4.6771166E-1,3.9237026E-2,1.0541723E0,-1.0576547E-1,1.0315442E0,1.0809313E0,2.60211E-1,-2.7388892E-1,1.0274494E0,3.247899E-2,-1.14497356E-1,-1.3659197E-2,-2.4945264E-1,7.5557715E-1,8.6107147E-1,-2.0418918E-1,1.4845455E-1,-2.7967817E-1,-4.3637257E-2,5.972458E-2,2.3387568E-1,-1.8949801E-2,8.496909E-2,3.125932E-1,-6.1977124E-3,1.7013367E-1,-1.22568116E-1,-1.1484131E-1,2.1949618E-1,2.821815E-1,-5.1628273E-2,4.471955E-1,1.24736145E-1],"split_indices":[5,1,14,1,0,10,15,1,0,10,12,9,10,1,14,11,12,10,9,0,9,0,1,14,15,0,14,15,0,0,0,10,2,0,0,0,0,0,0,0,0,0,0,0,0,0,0,0,0,0,0],"split_type":[0,0,0,0,0,0,0,0,0,0,0,0,0,0,0,0,0,0,0,0,0,0,0,0,0,0,0,0,0,0,0,0,0,0,0,0,0,0,0,0,0,0,0,0,0,0,0,0,0,0,0],"sum_hessian":[1.7908841E2,1.489103E2,3.017811E1,1.4652734E2,2.3829508E0,2.0703342E1,9.474768E0,1.4502155E2,1.5057982E0,1.2593576E1,8.109767E0,5.729352E0,3.7454154E0,1.3964195E2,5.3795886E0,9.356446E0,3.2371302E0,5.8916564E0,2.2181106E0,1.5966029E0,4.132749E0,1.6328064E0,2.112609E0,1.3745357E2,2.1883929E0,2.8514051E0,2.5281835E0,7.441225E0,1.9152215E0,1.6240606E0,1.6130697E0,3.0208738E0,2.8707824E0,1.1210002E0,1.0971103E0,3.0991557E0,1.0335934E0,1.0659443E0,1.0466646E0,1.25208954E2,1.2244607E1,1.0538704E0,1.1345224E0,1.0022957E0,1.5258878E0,1.2367277E0,6.2044973E0,1.2874817E0,1.7333922E0,1.8345791E0,1.0362033E0],"tree_param":{"num_deleted":"0","num_feature":"16","num_nodes":"51","size_leaf_vector":"1"}},{"base_weights":[-2.1008037E-3,-2.6633056E-2,1.6660555E-1,-9.202302E-3,-6.354115E-1,-3.5724513E-2,4.4317016E-1,3.226086E-2,-1.8507834E-1,-2.4541901E-2,-2.3533499E-1,2.575714E-1,-4.484177E-1,9.768935E-2,9.569278E-1,6.0432006E-2,-3.0187106E-1,1.2437269E-1,-3.215018E-1,-3.4764856E-2,7.172619E-1,5.334994E-2,-2.6053143E-1,-1.7521313E-1,2.1899356E-1,4.3539274E-1,-1.4643047E-3,-1.1892504E-1,1.4079031E-1,1.9857036E-1,-6.8305856E-1,-4.0127444E-1,5.1287174E-1,-5.082476E-1,1.682093E-1,4.8417068E-1,-4.4969305E-1,2.3898084E-2,2.828062E-1,-1.9513066E-1,1.6799371E-1,7.5321704E-2,-4.5165712E-1,-7.01987E-2,7.80534E-2,2.3212E-2,1.9247901E-1,1.3459441E-1,-1.1772155E-1,-2.8020817E-1,3.920244E-3,1.3319258E-1,-2.2637928E-1,-8.872268E-2,2.680943E-1,1.537202E-1,-2.0943706E-1,-6.2643744E-2,3.050369E-1,-3.4112573E-2,2.5239873E-1,5.422778E-2,-2.1454278E-1,-2.1908404E-1,1.7809274E-2],"categories":[],"categories_nodes":[],"categories_segments":[],"categories_sizes":[],"default_left":[0,0,0,0,0,0,0,0,0,0,0,0,0,0,0,0,0,0,0,0,0,0,0,0,0,0,0,0,0,0,0,0,0,0,0,0,0,0,0,0,0,0,0,0,0,0,0,0,0,0,0,0,0,0,0,0,0,0,0,0,0,0,0,0,0],"id":27,"left_children":[1,3,5,7,9,11,13,15,17,-1,-1,19,21,23,25,27,29,31,33,35,37,39,-1,41,-1,-1,-1,43,45,47,49,51,53,55,57,59,61,-1,-1,-1,-1,-1,63,-1,-1,-1,-1,-1,-1,-1,-1,-1,-1,-1,-1,-1,-1,-1,-1,-1,-1,-1,-1,-1,-1],"loss_changes":[7.4223065E-1,1.6548029E0,1.2899313E0,1.1228303E0,2.9403102E-1,1.8191199E0,1.6272128E0,1.1928544E0,1.27974E0,0E0,0E0,1.2159395E0,1.355533E0,1.3202788E0,1.8064792E0,1.6874495E0,2.0184112E0,2.1879642E0,1.9749107E0,1.5895922E0,4.2673373E-1,1.7094126E0,0E0,7.772502E-1,0E0,0E0,0E0,1.6491368E0,2.5073185E0,9.2122716E-1,1.0303264E0,1.7345054E0,2.1179247E0,3.3044736E0,2.2774637E0,8.029824E-1,8.085351E-1,0E0,0E0,0E0,0E0,0E0,5.807778E-1,0E0,0E0,0E0,0E0,0E0,0E0,0E0,0E0,0E0,0E0,0E0,0E0,0E0,0E0,0E0,0E0,0E0,0E0,0E0,0E0,0E0,0E0],"parents":[2147483647,0,0,1,1,2,2,3,3,4,4,5,5,6,6,7,7,8,8,11,11,12,12,13,13,14,14,15,15,16,16,17,17,18,18,19,19,20,20,21,21,23,23,27,27,28,28,29,29,30,30,31,31,32,32,33,33,34,34,35,35,36,36,42,42],"right_children":[2,4,6,8,10,12,14,16,18,-1,-1,20,22,24,26,28,30,32,34,36,38,40,-1,42,-1,-1,-1,44,46,48,50,52,54,56,58,60,62,-1,-1,-1,-1,-1,64,-1,-1,-1,-1,-1,-1,-1,-1,-1,-1,-1,-1,-1,-1,-1,-1,-1,-1,-1,-1,-1,-1],"split_conditions":[1.1079249E0,1.0726601E0,6.693129E-1,8.29541E-1,4.9812612E-1,4.9590966E-1,8.29541E-1,1.0021306E0,-7.8341615E-1,-2.4541901E-2,-2.3533499E-1,3.5742036E-1,5.082318E-1,2.5585382E0,1.0152446E0,-7.8341615E-1,4.9263057E-1,6.776769E-1,-1.7558369E-1,2.2758663E-1,1.1431897E0,3.943463E-1,-2.6053143E-1,4.692642E-1,2.1899356E-1,4.3539274E-1,-1.4643047E-3,5.80001E-1,7.1567506E-1,3.1850523E-1,4.2915115E0,2.8566213E-2,4.692642E-1,1.9542636E-1,1.015391E0,4.258216E-1,5.471995E-1,2.3898084E-2,2.828062E-1,-1.9513066E-1,1.6799371E-1,7.5321704E-2,8.32962E-1,-7.01987E-2,7.80534E-2,2.3212E-2,1.9247901E-1,1.3459441E-1,-1.1772155E-1,-2.8020817E-1,3.920244E-3,1.3319258E-1,-2.2637928E-1,-8.872268E-2,2.680943E-1,1.537202E-1,-2.0943706E-1,-6.2643744E-2,3.050369E-1,-3.4112573E-2,2.5239873E-1,5.422778E-2,-2.1454278E-1,-2.1908404E-1,1.7809274E-2],"split_indices":[2,2,12,15,8,10,15,2,3,0,0,10,5,7,10,3,14,10,11,10,2,8,0,5,0,0,0,1,15,11,6,12,5,9,8,9,5,0,0,0,0,0,5,0,0,0,0,0,0,0,0,0,0,0,0,0,0,0,0,0,0,0,0,0,0],"split_type":[0,0,0,0,0,0,0,0,0,0,0,0,0,0,0,0,0,0,0,0,0,0,0,0,0,0,0,0,0,0,0,0,0,0,0,0,0,0,0,0,0,0,0,0,0,0,0,0,0,0,0,0,0,0,0,0,0,0,0,0,0,0,0,0,0],"sum_hessian":[1.7726494E2,1.5549582E2,2.1769123E1,1.5215439E2,3.3414207E0,1.307471E1,8.694413E0,1.23787735E2,2.8366661E1,1.0372895E0,2.3041313E0,7.862679E0,5.2120314E0,5.910197E0,2.7842162E0,1.1491797E2,8.869762E0,8.706326E0,1.9660336E1,5.371251E0,2.491428E0,2.7726872E0,2.4393442E0,4.633305E0,1.2768914E0,1.5028144E0,1.2814018E0,3.5408176E1,7.9509796E1,4.0421314E0,4.8276315E0,3.6860886E0,5.0202365E0,1.4205409E1,5.454926E0,2.3123727E0,3.0588784E0,1.0042752E0,1.4871527E0,1.0417237E0,1.7309635E0,1.8587822E0,2.774523E0,2.7456856E1,7.95132E0,7.159787E1,7.9119225E0,3.0094745E0,1.0326568E0,3.2971768E0,1.5304544E0,1.010976E0,2.6751127E0,1.6786915E0,3.341545E0,1.9617451E0,1.2243665E1,4.2988753E0,1.1560506E0,1.1196762E0,1.1926965E0,1.0008552E0,2.0580232E0,1.5178754E0,1.2566477E0],"tree_param":{"num_deleted":"0","num_feature":"16","num_nodes":"65","size_leaf_vector":"1"}},{"base_weights":[-2.4163537E-3,-9.711124E-3,1.6878934E-1,-1.6210072E-4,-4.0243942E-1,-1.3307589E-2,4.025923E-1,3.0817958E-2,-1.8366326E-1,1.21942565E-1,-5.1780052E-2,3.3459204E-1,-1.1902362E-1,-1.3848698E-2,4.3719408E-1,-2.4803504E-2,-7.22524E-1,-1.4928272E-1,1.13228835E-1,8.090104E-2,-1.2294809E-1,2.6315287E-1,-3.3878833E-2,-1.2537873E-1,9.8174256E-5,-2.4202257E-1,-5.8870215E-2],"categories":[],"categories_nodes":[],"categories_segments":[],"categories_sizes":[],"default_left":[0,0,0,0,0,0,0,0,0,0,0,0,0,0,0,0,0,0,0,0,0,0,0,0,0,0,0],"id":28,"left_children":[1,3,-1,5,7,9,11,-1,-1,13,15,-1,17,19,21,23,25,-1,-1,-1,-1,-1,-1,-1,-1,-1,-1],"loss_changes":[7.2885287E-1,6.5338516E-1,0E0,9.112815E-1,5.011516E-1,8.735631E-1,2.155259E0,0E0,0E0,1.5988925E0,2.342685E0,0E0,9.4804466E-1,3.139018E0,2.8178802E0,1.2494278E0,6.36847E-2,0E0,0E0,0E0,0E0,0E0,0E0,0E0,0E0,0E0,0E0],"parents":[2147483647,0,0,1,1,3,3,4,4,5,5,6,6,9,9,10,10,12,12,13,13,14,14,15,15,16,16],"right_children":[2,4,-1,6,8,10,12,-1,-1,14,16,-1,18,20,22,24,26,-1,-1,-1,-1,-1,-1,-1,-1,-1,-1],"split_conditions":[2.3992856E0,1.5131903E0,1.6878934E-1,1.3551502E0,8.6107147E-1,4.3847314E-1,1.4003046E0,3.0817958E-2,-1.8366326E-1,8.5092694E-1,1.4368263E0,3.3459204E-1,2.5585382E0,6.258725E-1,9.7133845E-1,4.760627E-1,8.666671E-1,-1.4928272E-1,1.13228835E-1,8.090104E-2,-1.2294809E-1,2.6315287E-1,-3.3878833E-2,-1.2537873E-1,9.8174256E-5,-2.4202257E-1,-5.8870215E-2],"split_indices":[0,1,0,1,2,8,1,0,0,1,15,0,7,12,1,8,8,0,0,0,0,0,0,0,0,0,0],"split_type":[0,0,0,0,0,0,0,0,0,0,0,0,0,0,0,0,0,0,0,0,0,0,0,0,0,0,0],"sum_hessian":[1.7449928E2,1.732455E2,1.2537879E0,1.7010976E2,3.1357343E0,1.6566943E2,4.440321E0,1.0697893E0,2.0659451E0,3.6208534E1,1.294609E2,1.395454E0,3.044867E0,2.5975803E1,1.0232732E1,1.2545233E2,4.0085692E0,1.7261839E0,1.318683E0,1.5323335E1,1.0652469E1,5.3552003E0,4.877532E0,6.598617E0,1.18853714E2,2.996223E0,1.0123463E0],"tree_param":{"num_deleted":"0","num_feature":"16","num_nodes":"27","size_leaf_vector":"1"}},{"base_weights":[-2.311096E-3,-3.0838162E-1,9.477287E-3,9.437213E-2,-5.9649235E-1,-1.7813472E-1,2.9806217E-2,-2.3261847E-1,1.1045605E-2,-3.5886395E-1,3.5594177E-1,2.3616908E-1,-1.0357423E-2,9.290113E-2,-6.464463E-1,2.2810577E-1,-1.0972699E-1,9.307186E-3,6.5019566E-1,6.182758E-1,-2.725927E-2,4.6963948E-1,-1.5155241E-1,-8.079315E-1,3.4439012E-3,2.9467642E-1,-3.6224595E-1,9.8599523E-1,2.0001708E-1,5.158345E-4,2.637863E-1,-4.0302906E-2,1.8738073E-1,-7.2860405E-2,2.4238707E-1,-1.0497159E-1,-2.9987308E-1,-7.3475555E-2,1.8004362E-1,2.1195984E-2,-2.3041993E-1,3.760884E-1,5.1737394E-2,-9.93341E-2,1.505715E-1,-5.036348E-4,-9.893448E-2],"categories":[],"categories_nodes":[],"categories_segments":[],"categories_sizes":[],"default_left":[0,0,0,0,0,0,0,0,0,0,0,0,0,0,0,0,0,0,0,0,0,0,0,0,0,0,0,0,0,0,0,0,0,0,0,0,0,0,0,0,0,0,0,0,0,0,0],"id":29,"left_children":[1,3,5,-1,7,9,11,-1,-1,13,15,17,19,21,23,-1,-1,25,27,29,31,33,-1,35,-1,37,39,41,43,-1,-1,45,-1,-1,-1,-1,-1,-1,-1,-1,-1,-1,-1,-1,-1,-1,-1],"loss_changes":[6.299614E-1,1.3497832E0,6.472452E-1,0E0,5.6929946E-1,1.7298348E0,1.2681866E0,0E0,0E0,1.7359445E0,1.6494639E0,2.3347902E0,1.3852818E0,1.5647812E0,8.6004686E-1,0E0,0E0,1.9214039E0,1.1341913E0,5.479561E-1,1.0997219E0,1.1925057E0,0E0,2.1584654E-1,0E0,1.833422E0,1.439184E0,8.267336E-1,9.706743E-1,0E0,0E0,1.395246E0,0E0,0E0,0E0,0E0,0E0,0E0,0E0,0E0,0E0,0E0,0E0,0E0,0E0,0E0,0E0],"parents":[2147483647,0,0,1,1,2,2,4,4,5,5,6,6,9,9,10,10,11,11,12,12,13,13,14,14,17,17,18,18,19,19,20,20,21,21,23,23,25,25,26,26,27,27,28,28,31,31],"right_children":[2,4,6,-1,8,10,12,-1,-1,14,16,18,20,22,24,-1,-1,26,28,30,32,34,-1,36,-1,38,40,42,44,-1,-1,46,-1,-1,-1,-1,-1,-1,-1,-1,-1,-1,-1,-1,-1,-1,-1],"split_conditions":[2.9683515E-1,2.6392072E-1,3.6535057E-1,9.437213E-2,2.5585382E0,9.62536E-1,4.9524263E-1,-2.3261847E-1,1.1045605E-2,4.0069827E-1,6.01809E-1,7.6705396E-1,6.477556E-2,2.9816633E-1,9.813624E-1,2.2810577E-1,-1.0972699E-1,4.6771166E-1,9.4081575E-1,7.8319544E-1,2.1579778E0,-8.138702E-2,-1.5155241E-1,2.0948009E-1,3.4439012E-3,5.461125E-1,4.173074E-1,6.7716193E-1,4.9721807E-1,5.158345E-4,2.637863E-1,1.1191117E0,1.8738073E-1,-7.2860405E-2,2.4238707E-1,-1.0497159E-1,-2.9987308E-1,-7.3475555E-2,1.8004362E-1,2.1195984E-2,-2.3041993E-1,3.760884E-1,5.1737394E-2,-9.93341E-2,1.505715E-1,-5.036348E-4,-9.893448E-2],"split_indices":[2,1,5,0,7,12,5,0,0,10,15,12,14,15,15,0,0,9,12,1,15,15,0,5,0,14,5,9,1,0,0,10,0,0,0,0,0,0,0,0,0,0,0,0,0,0,0],"split_type":[0,0,0,0,0,0,0,0,0,0,0,0,0,0,0,0,0,0,0,0,0,0,0,0,0,0,0,0,0,0,0,0,0,0,0,0,0,0,0,0,0,0,0,0,0,0,0],"sum_hessian":[1.7278755E2,5.4750476E0,1.6731252E2,1.7023537E0,3.7726939E0,1.5598077E1,1.5171443E2,2.7667658E0,1.0059279E0,1.1899427E1,3.6986494E0,2.3921965E1,1.27792465E2,4.8918085E0,7.0076184E0,2.336057E0,1.3625925E0,1.6114603E1,7.8073626E0,2.414361E0,1.25378105E2,3.1330166E0,1.7587922E0,5.443529E0,1.5640894E0,9.231392E0,6.8832107E0,3.7900426E0,4.0173197E0,1.0174798E0,1.3968811E0,1.23838295E2,1.5398097E0,1.0995203E0,2.0334961E0,2.4393525E0,3.0041766E0,3.4085636E0,5.822828E0,3.730108E0,3.1531029E0,2.4448051E0,1.3452374E0,1.4208019E0,2.596518E0,1.101475E2,1.3690795E1],"tree_param":{"num_deleted":"0","num_feature":"16","num_nodes":"47","size_leaf_vector":"1"}},{"base_weights":[-1.3591659E-3,-7.069441E-2,4.7964144E-2,6.065405E-3,-3.744498E-1,6.9998406E-2,-4.6310824E-1,-4.8046255E-1,6.3865535E-2,-5.548814E-1,1.7048207E-1,2.1676902E-2,3.7691608E-1,-2.4436978E-1,5.9792798E-2,9.2526816E-2,-7.668447E-1,7.289664E-1,-8.1292065E-3,3.0952805E-1,-8.208915E-1,-4.0386945E-2,3.3657563E-1,8.293359E-1,7.546949E-2,-3.0392641E-2,-2.819986E-1,8.937428E-6,3.61784E-1,1.2001262E-1,-2.869991E-1,-1.134449E-1,2.7106905E-1,4.5063034E-2,-3.209981E-1,-2.6262578E-1,1.0281579E-1,-3.1182495E-1,6.622819E-1,-9.951619E-2,4.3466398E-1,-1.8884698E-1,2.7265632E-1,7.274736E-2,-5.8891043E-2,-1.7242071E-1,8.185869E-3,-1.718418E-1,1.8010545E-1,-2.1420734E-1,-2.6773432E-2,8.09572E-2,-7.670652E-2,-1.5699896E-1,7.885205E-2,3.2658917E-1,1.6861761E-2,2.1380241E-1,-7.704051E-2],"categories":[],"categories_nodes":[],"categories_segments":[],"categories_sizes":[],"default_left":[0,0,0,0,0,0,0,0,0,0,0,0,0,0,0,0,0,0,0,0,0,0,0,0,0,0,0,0,0,0,0,0,0,0,0,0,0,0,0,0,0,0,0,0,0,0,0,0,0,0,0,0,0,0,0,0,0,0,0],"id":30,"left_children":[1,3,5,7,9,11,13,15,17,19,-1,21,23,-1,-1,-1,25,27,29,31,33,35,37,39,41,-1,-1,-1,-1,43,45,-1,-1,47,-1,49,51,53,55,-1,-1,-1,57,-1,-1,-1,-1,-1,-1,-1,-1,-1,-1,-1,-1,-1,-1,-1,-1],"loss_changes":[5.9069806E-1,1.6761438E0,1.169169E0,1.6699425E0,2.7813697E0,1.4399235E0,1.164266E0,1.6614423E0,2.54305E0,3.1685512E0,0E0,1.6830423E0,1.7404535E0,0E0,0E0,0E0,4.7106934E-1,1.8031693E0,1.7782634E0,1.8567504E0,2.197989E0,2.3263674E0,3.1992593E0,4.211341E0,1.4274776E0,0E0,0E0,0E0,0E0,1.3702644E0,1.4316993E0,0E0,0E0,1.4369776E0,0E0,2.174103E0,2.743257E0,7.960985E-1,2.4589405E0,0E0,0E0,0E0,1.9902618E0,0E0,0E0,0E0,0E0,0E0,0E0,0E0,0E0,0E0,0E0,0E0,0E0,0E0,0E0,0E0,0E0],"parents":[2147483647,0,0,1,1,2,2,3,3,4,4,5,5,6,6,7,7,8,8,9,9,11,11,12,12,16,16,17,17,18,18,19,19,20,20,21,21,22,22,23,23,24,24,29,29,30,30,33,33,35,35,36,36,37,37,38,38,42,42],"right_children":[2,4,6,8,10,12,14,16,18,20,-1,22,24,-1,-1,-1,26,28,30,32,34,36,38,40,42,-1,-1,-1,-1,44,46,-1,-1,48,-1,50,52,54,56,-1,-1,-1,58,-1,-1,-1,-1,-1,-1,-1,-1,-1,-1,-1,-1,-1,-1,-1,-1],"split_conditions":[6.4948285E-1,5.789533E-1,1.1966598E0,-1.9525303E-1,1.1706814E0,9.628541E-1,1.4153559E0,-4.988957E-1,-4.343168E-2,3.5892588E-1,1.7048207E-1,1.0102297E0,5.553276E-1,-2.4436978E-1,5.9792798E-2,9.2526816E-2,3.673647E-1,4.785985E-1,8.184544E-1,8.213545E-1,5.218764E-1,5.8392835E-1,5.193715E-1,6.258725E-1,7.1304023E-1,-3.0392641E-2,-2.819986E-1,8.937428E-6,3.61784E-1,7.915857E-1,6.853611E-1,-1.134449E-1,2.7106905E-1,2.1318814E-1,-3.209981E-1,3.4204152E-1,8.20824E-1,8.810298E-1,6.6036576E-1,-9.951619E-2,4.3466398E-1,-1.8884698E-1,6.3527185E-1,7.274736E-2,-5.8891043E-2,-1.7242071E-1,8.185869E-3,-1.718418E-1,1.8010545E-1,-2.1420734E-1,-2.6773432E-2,8.09572E-2,-7.670652E-2,-1.5699896E-1,7.885205E-2,3.2658917E-1,1.6861761E-2,2.1380241E-1,-7.704051E-2],"split_indices":[2,2,5,15,5,5,1,15,15,14,0,11,8,0,0,0,2,10,8,12,10,8,14,12,8,0,0,0,0,15,1,0,0,12,0,9,1,1,10,0,0,0,9,0,0,0,0,0,0,0,0,0,0,0,0,0,0,0,0],"split_type":[0,0,0,0,0,0,0,0,0,0,0,0,0,0,0,0,0,0,0,0,0,0,0,0,0,0,0,0,0,0,0,0,0,0,0,0,0,0,0,0,0,0,0,0,0,0,0,0,0,0,0,0,0,0,0,0,0,0,0],"sum_hessian":[1.707351E2,7.079009E1,9.994502E1,5.729222E1,1.34978695E1,9.664148E1,3.303543E0,5.307158E0,5.198506E1,1.167479E1,1.8230789E0,8.442079E1,1.2220688E1,2.0083108E0,1.2952323E0,1.392988E0,3.91417E0,4.1862674E0,4.7798794E1,2.7088125E0,8.965978E0,7.124981E1,1.3170982E1,4.186412E0,8.034277E0,1.1353474E0,2.7788227E0,2.0513659E0,2.1349013E0,3.3140327E1,1.4658465E1,1.4238882E0,1.2849243E0,2.1859722E0,6.7800055E0,2.7593317E1,4.3656494E1,4.418152E0,8.75283E0,1.6182681E0,2.5681436E0,1.2769E0,6.7573767E0,2.4058279E1,9.082049E0,7.2198215E0,7.4386444E0,1.01975E0,1.1662221E0,6.792016E0,2.08013E1,2.9949219E1,1.3707275E1,3.2948258E0,1.1233263E0,4.670874E0,4.081956E0,3.5014062E0,3.2559702E0],"tree_param":{"num_deleted":"0","num_feature":"16","num_nodes":"59","size_leaf_vector":"1"}},{"base_weights":[-4.3670335E-3,-1.117264E-2,1.6048457E-1,-2.3160388E-3,-3.743992E-1,-7.420728E-2,5.183873E-2,-1.9048055E-1,3.5595026E-2,-1.5136386E-2,-4.9860984E-1,3.2854506E-1,-2.5002332E-2,-5.2382734E-2,5.0409186E-1,-2.6190627E-1,-1.1174951E-1,-4.2865208E-1,5.726462E-1,-4.3232656E-1,5.9890933E-2,-8.335095E-4,-1.9905859E-1,2.98271E-1,-6.48038E-2,1.564891E-1,-2.0704739E-1,1.3583319E-1,-2.188247E-1,2.7085477E-1,6.7927234E-2,-2.1240881E-1,-3.6375098E-2,1.3788226E-1,-1.6750495E-3],"categories":[],"categories_nodes":[],"categories_segments":[],"categories_sizes":[],"default_left":[0,0,0,0,0,0,0,0,0,0,0,0,0,0,0,0,0,0,0,0,0,0,0,0,0,0,0,0,0,0,0,0,0,0,0],"id":31,"left_children":[1,3,-1,5,7,9,11,-1,-1,13,15,17,19,21,23,-1,25,27,29,31,33,-1,-1,-1,-1,-1,-1,-1,-1,-1,-1,-1,-1,-1,-1],"loss_changes":[6.255973E-1,5.3859234E-1,0E0,6.4509434E-1,5.87278E-1,1.776839E0,2.0181658E0,0E0,0E0,1.2546779E0,1.1575298E0,4.056037E0,2.616365E0,1.8221318E0,1.7484063E0,0E0,2.3414145E0,1.8142623E0,1.626862E0,1.0327141E0,1.6480079E0,0E0,0E0,0E0,0E0,0E0,0E0,0E0,0E0,0E0,0E0,0E0,0E0,0E0,0E0],"parents":[2147483647,0,0,1,1,3,3,4,4,5,5,6,6,9,9,10,10,11,11,12,12,13,13,14,14,16,16,17,17,18,18,19,19,20,20],"right_children":[2,4,-1,6,8,10,12,-1,-1,14,16,18,20,22,24,-1,26,28,30,32,34,-1,-1,-1,-1,-1,-1,-1,-1,-1,-1,-1,-1,-1,-1],"split_conditions":[2.3992856E0,1.5131903E0,1.6048457E-1,5.738099E-1,6.9342834E-1,5.30532E-1,6.8633246E-1,-1.9048055E-1,3.5595026E-2,6.693129E-1,6.2478656E-1,3.210965E-1,4.9721807E-1,6.0415226E-1,5.724368E-1,-2.6190627E-1,8.478723E-1,6.975621E-2,6.584528E-1,6.2478656E-1,5.423724E-1,-8.335095E-4,-1.9905859E-1,2.98271E-1,-6.48038E-2,1.564891E-1,-2.0704739E-1,1.3583319E-1,-2.188247E-1,2.7085477E-1,6.7927234E-2,-2.1240881E-1,-3.6375098E-2,1.3788226E-1,-1.6750495E-3],"split_indices":[0,1,0,10,8,10,10,0,0,12,8,9,1,12,9,0,8,9,12,8,1,0,0,0,0,0,0,0,0,0,0,0,0,0,0],"split_type":[0,0,0,0,0,0,0,0,0,0,0,0,0,0,0,0,0,0,0,0,0,0,0,0,0,0,0,0,0,0,0,0,0,0,0],"sum_hessian":[1.678169E2,1.6669269E2,1.1242063E0,1.6370737E2,2.9853225E0,7.017661E1,9.3530754E1,1.7649299E0,1.2203926E0,6.2511543E1,7.6650667E0,1.961632E1,7.391444E1,5.916641E1,3.3451326E0,3.2565916E0,4.4084754E0,4.5978465E0,1.5018474E1,1.2042247E1,6.187219E1,5.5653755E1,3.5126557E0,1.763862E0,1.5812705E0,2.1510997E0,2.2573757E0,1.0411592E0,3.5566874E0,6.864176E0,8.154298E0,5.7076073E0,6.33464E0,7.8611007E0,5.401109E1],"tree_param":{"num_deleted":"0","num_feature":"16","num_nodes":"35","size_leaf_vector":"1"}},{"base_weights":[-6.270967E-3,-2.736314E-2,1.4388588E-1,-1.3195319E-2,-5.522632E-1,2.2277187E-1,-1.1316108E-1,-4.7368136E-1,-1.2733715E-3,-2.0980057E-1,-2.4142308E-2,-5.5696787E-3,4.7166246E-1,9.573961E-3,-2.0320123E-1,6.6844267E-1,-1.8603425E-2,-4.1107965E-1,2.962007E-1,1.6048023E-1,3.4106046E-1,2.5487018E-1,3.295941E-2,3.7649155E-1,-3.146069E-2,1.5570114E-2,-2.1595968E-1,4.8280156E-1,-7.317117E-2,5.895144E-1,-2.4936968E-1,2.3474513E-1,-8.782452E-2,7.7316226E-3,-3.4280345E-2,-5.5349406E-2,2.558785E-1,2.545226E-1,-1.7424012E-2,-2.0849864E-1,8.28054E-2],"categories":[],"categories_nodes":[],"categories_segments":[],"categories_sizes":[],"default_left":[0,0,0,0,0,0,0,0,0,0,0,0,0,0,0,0,0,0,0,0,0,0,0,0,0,0,0,0,0,0,0,0,0,0,0,0,0,0,0,0,0],"id":32,"left_children":[1,3,5,7,9,11,-1,13,15,-1,-1,17,19,-1,-1,21,23,25,27,29,-1,-1,-1,31,33,-1,-1,35,-1,37,39,-1,-1,-1,-1,-1,-1,-1,-1,-1,-1],"loss_changes":[5.335138E-1,1.089294E0,9.37178E-1,7.932602E-1,2.1092772E-1,1.0627921E0,0E0,3.9709944E-1,1.6600299E0,0E0,0E0,1.4332255E0,1.6675628E0,0E0,0E0,2.7167428E-1,7.197212E-1,7.509385E-1,7.956033E-1,1.4224114E0,0E0,0E0,0E0,1.443315E0,6.469239E-1,0E0,0E0,1.4748708E0,0E0,6.9324183E-1,1.2248632E0,0E0,0E0,0E0,0E0,0E0,0E0,0E0,0E0,0E0,0E0],"parents":[2147483647,0,0,1,1,2,2,3,3,4,4,5,5,7,7,8,8,11,11,12,12,15,15,16,16,17,17,18,18,19,19,23,23,24,24,27,27,29,29,30,30],"right_children":[2,4,6,8,10,12,-1,14,16,-1,-1,18,20,-1,-1,22,24,26,28,30,-1,-1,-1,32,34,-1,-1,36,-1,38,40,-1,-1,-1,-1,-1,-1,-1,-1,-1,-1],"split_conditions":[1.1079249E0,1.0726601E0,1.015391E0,-1.8863606E-1,6.01809E-1,6.027231E-1,-1.1316108E-1,5.2122104E-1,-1.2347538E-1,-2.0980057E-1,-2.4142308E-2,4.886567E-1,9.4340706E-1,9.573961E-3,-2.0320123E-1,3.3612168E-1,1.761635E-1,4.9590966E-1,9.546555E-1,7.154918E-1,3.4106046E-1,2.5487018E-1,3.295941E-2,6.2633526E-1,4.8794302E-1,1.5570114E-2,-2.1595968E-1,4.84691E-1,-7.317117E-2,2.60211E-1,7.2095484E-1,2.3474513E-1,-8.782452E-2,7.7316226E-3,-3.4280345E-2,-5.5349406E-2,2.558785E-1,2.545226E-1,-1.7424012E-2,-2.0849864E-1,8.28054E-2],"split_indices":[2,2,8,12,15,8,0,5,12,0,0,9,15,0,0,15,8,10,10,8,0,0,0,14,15,0,0,12,0,15,10,0,0,0,0,0,0,0,0,0,0],"split_type":[0,0,0,0,0,0,0,0,0,0,0,0,0,0,0,0,0,0,0,0,0,0,0,0,0,0,0,0,0,0,0,0,0,0,0,0,0,0,0,0,0],"sum_hessian":[1.6621002E2,1.4645554E2,1.975449E1,1.4360458E2,2.8509593E0,1.7654346E1,2.1001444E0,2.6466248E0,1.4095795E2,1.8057443E0,1.045215E0,9.717119E0,7.937227E0,1.0021056E0,1.6445193E0,2.6078258E0,1.3835013E2,3.9913867E0,5.725733E0,6.253226E0,1.6840011E0,1.575883E0,1.0319427E0,3.46896E0,1.3488116E2,1.9298204E0,2.0615664E0,4.334352E0,1.3913805E0,2.8409402E0,3.4122856E0,2.0538104E0,1.4151497E0,8.0163994E1,5.4717175E1,1.7253162E0,2.609036E0,1.8080347E0,1.0329057E0,1.6716195E0,1.740666E0],"tree_param":{"num_deleted":"0","num_feature":"16","num_nodes":"41","size_leaf_vector":"1"}},{"base_weights":[-3.8116688E-3,5.1154267E-2,-5.6853514E-2,8.89203E-2,-6.374421E-1,-2.5161856E-1,3.717839E-2,2.1127185E-2,4.5297572E-1,-2.6848248E-1,2.9895606E-2,1.9804505E-1,-4.162719E-1,6.4770925E-1,-2.2471135E-3,5.9041508E-2,-2.3008431E-1,6.489442E-1,-1.0821305E-1,-2.4336584E-1,2.8936645E-1,-5.2088773E-1,1.7595688E-1,-4.448208E-2,3.1212035E-1,-1.1231838E-1,2.0921975E-1,-1.6094886E-2,3.8758826E-1,8.957891E-1,1.0600408E-1,-1.368063E-1,1.13146685E-1,1.9682132E-1,-6.253487E-1,-6.055539E-1,4.22537E-2,-2.0895481E-1,3.8813174E-1,3.7206045E-1,-3.8035664E-1,-2.8036932E-2,1.08071595E-1,1.6841339E-1,-2.0387693E-1,3.1789467E-1,6.648652E-2,1.9282117E-1,-1.653963E-1,-6.6934496E-2,-2.386785E-1,-2.0832993E-1,3.567735E-2,4.5594308E-3,-2.1669564E-1,-1.0431761E-1,2.5533152E-1,2.371462E-1,-2.2970426E-3,-2.206939E-1,2.9178495E-2],"categories":[],"categories_nodes":[],"categories_segments":[],"categories_sizes":[],"default_left":[0,0,0,0,0,0,0,0,0,0,0,0,0,0,0,0,0,0,0,0,0,0,0,0,0,0,0,0,0,0,0,0,0,0,0,0,0,0,0,0,0,0,0,0,0,0,0,0,0,0,0,0,0,0,0,0,0,0,0,0,0],"id":33,"left_children":[1,3,5,7,9,11,13,15,17,-1,-1,19,21,23,25,27,-1,29,31,33,-1,35,-1,-1,-1,37,39,41,43,45,47,-1,-1,-1,49,51,-1,53,55,57,59,-1,-1,-1,-1,-1,-1,-1,-1,-1,-1,-1,-1,-1,-1,-1,-1,-1,-1,-1,-1],"loss_changes":[4.8505294E-1,2.1823745E0,1.5593383E0,1.9245778E0,9.1906166E-1,2.1322136E0,1.3962924E0,2.0506058E0,1.4178064E0,0E0,0E0,2.97466E0,2.4652798E0,1.2540653E0,1.3137002E0,1.6098775E0,0E0,1.1413898E0,8.5207033E-1,2.4501348E0,0E0,1.1594286E0,0E0,0E0,0E0,1.8755708E0,1.9967885E0,1.6008859E0,2.6313868E0,4.508953E-1,1.7717435E0,0E0,0E0,0E0,1.4293003E-1,1.1892071E0,0E0,3.6644988E0,2.461089E0,2.4922073E0,8.6515737E-1,0E0,0E0,0E0,0E0,0E0,0E0,0E0,0E0,0E0,0E0,0E0,0E0,0E0,0E0,0E0,0E0,0E0,0E0,0E0,0E0],"parents":[2147483647,0,0,1,1,2,2,3,3,4,4,5,5,6,6,7,7,8,8,11,11,12,12,13,13,14,14,15,15,17,17,18,18,19,19,21,21,25,25,26,26,27,27,28,28,29,29,30,30,34,34,35,35,37,37,38,38,39,39,40,40],"right_children":[2,4,6,8,10,12,14,16,18,-1,-1,20,22,24,26,28,-1,30,32,34,-1,36,-1,-1,-1,38,40,42,44,46,48,-1,-1,-1,50,52,-1,54,56,58,60,-1,-1,-1,-1,-1,-1,-1,-1,-1,-1,-1,-1,-1,-1,-1,-1,-1,-1,-1,-1],"split_conditions":[4.886567E-1,1.6358631E0,6.1432683E-1,1.0819973E0,8.057726E-1,3.217893E-1,6.3527185E-1,1.2413769E0,6.777197E-1,-2.6848248E-1,2.9895606E-2,2.4576849E-1,1.4393681E0,7.810052E-1,8.9374465E-1,4.258216E-1,-2.3008431E-1,3.4204152E-1,8.402628E-1,-1.6691583E-1,2.8936645E-1,1.1976185E0,1.7595688E-1,-4.448208E-2,3.1212035E-1,2.5585382E0,9.3687564E-1,9.628541E-1,8.973753E-1,8.2580674E-1,9.9793345E-1,-1.368063E-1,1.13146685E-1,1.9682132E-1,6.1010385E-1,1.1431897E0,4.22537E-2,8.258089E-1,7.645216E-1,2.9816633E-1,6.01809E-1,-2.8036932E-2,1.08071595E-1,1.6841339E-1,-2.0387693E-1,3.1789467E-1,6.648652E-2,1.9282117E-1,-1.653963E-1,-6.6934496E-2,-2.386785E-1,-2.0832993E-1,3.567735E-2,4.5594308E-3,-2.1669564E-1,-1.0431761E-1,2.5533152E-1,2.371462E-1,-2.2970426E-3,-2.206939E-1,2.9178495E-2],"split_indices":[9,12,9,12,1,12,9,14,15,0,0,12,10,5,14,9,0,9,14,12,0,8,0,0,0,7,5,5,12,2,10,0,0,0,1,2,0,8,8,15,15,0,0,0,0,0,0,0,0,0,0,0,0,0,0,0,0,0,0,0,0],"split_type":[0,0,0,0,0,0,0,0,0,0,0,0,0,0,0,0,0,0,0,0,0,0,0,0,0,0,0,0,0,0,0,0,0,0,0,0,0,0,0,0,0,0,0,0,0,0,0,0,0,0,0,0,0,0,0,0,0,0,0,0,0],"sum_hessian":[1.6437317E2,8.073996E1,8.363321E1,7.73676E1,3.372355E0,2.6685196E1,5.6948017E1,6.61141E1,1.1253502E1,2.3405497E0,1.0318052E0,7.0979886E0,1.9587208E1,2.5185082E0,5.442951E1,6.3961967E1,2.1521323E0,8.224955E0,3.0285478E0,4.9372625E0,2.160726E0,1.8171991E1,1.4152157E0,1.0376395E0,1.4808687E0,3.610516E1,1.8324347E1,5.283091E1,1.1131056E1,5.207504E0,3.0174503E0,1.7995104E0,1.2290375E0,1.2578716E0,3.6793911E0,1.6185959E1,1.986033E0,3.0749859E1,5.355301E0,1.4647618E1,3.6767282E0,4.4445976E1,8.384935E0,9.979807E0,1.1512487E0,3.7292917E0,1.4782122E0,1.6733133E0,1.344137E0,1.7813095E0,1.8980815E0,1.4454188E1,1.7317713E0,2.2079542E1,8.670316E0,2.164284E0,3.1910172E0,6.453952E0,8.193667E0,1.7985717E0,1.8781565E0],"tree_param":{"num_deleted":"0","num_feature":"16","num_nodes":"61","size_leaf_vector":"1"}},{"base_weights":[-4.139772E-3,-1.059491E-2,1.5347743E-1,-2.844282E-1,-4.380016E-4,8.2245395E-2,-5.81135E-1,-1.3248959E-1,7.583681E-3,-2.1397962E-1,-2.7377391E-2,1.4419304E-1,-6.813059E-4,-1.6865239E-1,1.2069944E-2,7.30821E-2,-2.445444E-3],"categories":[],"categories_nodes":[],"categories_segments":[],"categories_sizes":[],"default_left":[0,0,0,0,0,0,0,0,0,0,0,0,0,0,0,0,0],"id":34,"left_children":[1,3,-1,5,7,-1,9,-1,11,-1,-1,-1,13,-1,15,-1,-1],"loss_changes":[5.453877E-1,4.4813785E-1,0E0,1.1143972E0,5.568935E-1,0E0,1.9926345E-1,0E0,6.0477805E-1,0E0,0E0,0E0,1.101807E0,0E0,7.067422E-1,0E0,0E0],"parents":[2147483647,0,0,1,1,3,3,4,4,6,6,8,8,12,12,14,14],"right_children":[2,4,-1,6,8,-1,10,-1,12,-1,-1,-1,14,-1,16,-1,-1],"split_conditions":[2.3992856E0,2.9683515E-1,1.5347743E-1,2.6392072E-1,1.3598348E-1,8.2245395E-2,9.628541E-1,-1.3248959E-1,1.8866353E-1,-2.1397962E-1,-2.7377391E-2,1.4419304E-1,2.56395E-1,-1.6865239E-1,3.673647E-1,7.30821E-2,-2.445444E-3],"split_indices":[0,2,0,1,1,0,5,0,1,0,0,0,1,0,2,0,0],"split_type":[0,0,0,0,0,0,0,0,0,0,0,0,0,0,0,0,0],"sum_hessian":[1.6119543E2,1.6017014E2,1.025309E0,4.7627068E0,1.5540742E2,1.6785991E0,3.0841074E0,1.8098629E0,1.5359756E2,2.0698228E0,1.0142848E0,1.6560615E0,1.519415E2,2.4171245E0,1.4952438E2,1.1122607E1,1.3840176E2],"tree_param":{"num_deleted":"0","num_feature":"16","num_nodes":"17","size_leaf_vector":"1"}},{"base_weights":[-3.9977813E-3,-6.436821E-2,3.815609E-2,-4.619483E-3,-3.2263E-1,4.3871516E-1,1.322138E-2,-2.5895944E-1,7.9209E-2,3.448192E-1,-5.116323E-1,9.285606E-1,-1.03639625E-1,-1.8542546E-1,6.565623E-2,-5.122741E-1,1.2821236E-1,4.7186324E-1,-2.4815146E-2,-5.8290027E-2,2.399968E-1,-6.957942E-1,9.713174E-2,3.368973E-1,1.049292E-1,-3.4578615E-1,3.386892E-1,4.238347E-1,1.6279377E-2,-2.1392677E-2,-6.819952E-1,6.642463E-1,-4.613111E-1,6.481459E-1,-7.318715E-2,-1.577604E-1,3.3815694E-1,-2.6984093E-1,-1.5674064E-1,-5.1483804E-1,1.890746E-1,-1.020687E-1,6.6681135E-1,7.688415E-1,-3.6499E-1,1.9304854E-1,-1.2446666E-2,8.6269625E-2,-8.612528E-2,-6.5712295E-2,-2.597517E-1,1.12478435E-2,3.0582199E-1,1.0723474E-2,-2.0024696E-1,-7.200057E-2,2.5864273E-1,1.4006083E-1,-9.532005E-2,-1.5199448E-1,1.8223615E-1,1.0334822E-1,-1.9640116E-1,5.8695525E-2,-1.9386695E-1,1.9297428E-1,-4.3322828E-2,2.636096E-1,3.514133E-2,2.8038538E-1,1.3397728E-2,-1.8472783E-1,5.397725E-3,-7.6059215E-2,1.9298948E-2],"categories":[],"categories_nodes":[],"categories_segments":[],"categories_sizes":[],"default_left":[0,0,0,0,0,0,0,0,0,0,0,0,0,0,0,0,0,0,0,0,0,0,0,0,0,0,0,0,0,0,0,0,0,0,0,0,0,0,0,0,0,0,0,0,0,0,0,0,0,0,0,0,0,0,0,0,0,0,0,0,0,0,0,0,0,0,0,0,0,0,0,0,0,0,0],"id":35,"left_children":[1,3,5,7,9,11,13,15,17,19,21,23,-1,25,27,29,31,33,35,-1,-1,37,-1,-1,-1,39,41,43,45,47,49,51,53,55,-1,57,59,-1,61,63,65,-1,67,69,71,-1,73,-1,-1,-1,-1,-1,-1,-1,-1,-1,-1,-1,-1,-1,-1,-1,-1,-1,-1,-1,-1,-1,-1,-1,-1,-1,-1,-1,-1],"loss_changes":[4.139047E-1,1.0300306E0,9.5134276E-1,1.1996242E0,1.7589769E0,2.466059E0,9.625965E-1,1.4331853E0,1.7419153E0,9.813863E-1,1.7913532E0,2.4576664E-2,0E0,1.740655E0,1.282907E0,7.043052E-1,2.3018157E0,1.2839295E0,1.7151666E0,0E0,0E0,8.096123E-1,0E0,0E0,0E0,1.4795053E0,1.3475736E0,2.6743698E0,1.1815479E0,3.4928226E-1,3.5331702E-1,7.892004E-1,3.9252222E-1,1.6194956E0,0E0,2.7351458E0,2.4804761E0,0E0,1.1203538E0,1.2357457E0,7.5969476E-1,0E0,3.3143973E-1,7.315445E-1,3.3324462E-1,0E0,1.1872654E0,0E0,0E0,0E0,0E0,0E0,0E0,0E0,0E0,0E0,0E0,0E0,0E0,0E0,0E0,0E0,0E0,0E0,0E0,0E0,0E0,0E0,0E0,0E0,0E0,0E0,0E0,0E0,0E0],"parents":[2147483647,0,0,1,1,2,2,3,3,4,4,5,5,6,6,7,7,8,8,9,9,10,10,11,11,13,13,14,14,15,15,16,16,17,17,18,18,21,21,25,25,26,26,27,27,28,28,29,29,30,30,31,31,32,32,33,33,35,35,36,36,38,38,39,39,40,40,42,42,43,43,44,44,46,46],"right_children":[2,4,6,8,10,12,14,16,18,20,22,24,-1,26,28,30,32,34,36,-1,-1,38,-1,-1,-1,40,42,44,46,48,50,52,54,56,-1,58,60,-1,62,64,66,-1,68,70,72,-1,74,-1,-1,-1,-1,-1,-1,-1,-1,-1,-1,-1,-1,-1,-1,-1,-1,-1,-1,-1,-1,-1,-1,-1,-1,-1,-1,-1,-1],"split_conditions":[6.4948285E-1,5.789533E-1,2.0476423E-1,4.9263057E-1,1.4634499E-1,6.2633526E-1,3.210965E-1,5.096017E-1,2.373164E-1,-1.9525303E-1,1.1706814E0,9.3160105E-1,-1.03639625E-1,1.0711371E0,3.8393158E-1,2.2522119E-1,6.3527185E-1,7.6125294E-1,5.084238E-1,-5.8290027E-2,2.399968E-1,8.3724916E-1,9.713174E-2,3.368973E-1,1.049292E-1,9.054517E-1,6.403127E-1,9.3160105E-1,1.1825743E-1,2.881757E-1,3.673647E-1,6.4759266E-1,-8.138702E-2,3.7718585E-1,-7.318715E-2,2.566286E-1,4.785985E-1,-2.6984093E-1,6.703096E-1,4.8811186E-2,3.6522973E-1,-1.020687E-1,1.9542636E-1,7.9885507E-1,8.5092694E-1,1.9304854E-1,3.8338712E-1,8.6269625E-2,-8.612528E-2,-6.5712295E-2,-2.597517E-1,1.12478435E-2,3.0582199E-1,1.0723474E-2,-2.0024696E-1,-7.200057E-2,2.5864273E-1,1.4006083E-1,-9.532005E-2,-1.5199448E-1,1.8223615E-1,1.0334822E-1,-1.9640116E-1,5.8695525E-2,-1.9386695E-1,1.9297428E-1,-4.3322828E-2,2.636096E-1,3.514133E-2,2.8038538E-1,1.3397728E-2,-1.8472783E-1,5.397725E-3,-7.6059215E-2,1.9298948E-2],"split_indices":[2,2,8,14,15,14,9,